{"learner":{"attributes":{"scikit_learn":"{\"_estimator_type\": \"regressor\"}"},"feature_names":["sora_term_spread_t2","expected_bps","p_no_change","margin_over_second","days_to_next_fomc","p_no_change_missing","margin_over_second_missing","expected_bps_minus_sora_90d","sora_curve_steepness","sora_lag_21d_diff","sora_lag_63d_diff","sora_lag_10d_diff","sora_lag_5d_diff","sora_realized_vol_21d","sora_realized_vol_63d","sora_below_63d_peak","sora_dist_from_63d_ma","sora_accel_21d"],"feature_types":["float","float","float","float","int","int","int","float","float","float","float","float","float","float","float","float","float","float"],"gradient_booster":{"model":{"cats":{"enc":[],"feature_segments":[],"sorted_idx":[]},"gbtree_model_param":{"num_parallel_tree":"1","num_trees":"850"},"iteration_indptr":[0,1,2,3,4,5,6,7,8,9,10,11,12,13,14,15,16,17,18,19,20,21,22,23,24,25,26,27,28,29,30,31,32,33,34,35,36,37,38,39,40,41,42,43,44,45,46,47,48,49,50,51,52,53,54,55,56,57,58,59,60,61,62,63,64,65,66,67,68,69,70,71,72,73,74,75,76,77,78,79,80,81,82,83,84,85,86,87,88,89,90,91,92,93,94,95,96,97,98,99,100,101,102,103,104,105,106,107,108,109,110,111,112,113,114,115,116,117,118,119,120,121,122,123,124,125,126,127,128,129,130,131,132,133,134,135,136,137,138,139,140,141,142,143,144,145,146,147,148,149,150,151,152,153,154,155,156,157,158,159,160,161,162,163,164,165,166,167,168,169,170,171,172,173,174,175,176,177,178,179,180,181,182,183,184,185,186,187,188,189,190,191,192,193,194,195,196,197,198,199,200,201,202,203,204,205,206,207,208,209,210,211,212,213,214,215,216,217,218,219,220,221,222,223,224,225,226,227,228,229,230,231,232,233,234,235,236,237,238,239,240,241,242,243,244,245,246,247,248,249,250,251,252,253,254,255,256,257,258,259,260,261,262,263,264,265,266,267,268,269,270,271,272,273,274,275,276,277,278,279,280,281,282,283,284,285,286,287,288,289,290,291,292,293,294,295,296,297,298,299,300,301,302,303,304,305,306,307,308,309,310,311,312,313,314,315,316,317,318,319,320,321,322,323,324,325,326,327,328,329,330,331,332,333,334,335,336,337,338,339,340,341,342,343,344,345,346,347,348,349,350,351,352,353,354,355,356,357,358,359,360,361,362,363,364,365,366,367,368,369,370,371,372,373,374,375,376,377,378,379,380,381,382,383,384,385,386,387,388,389,390,391,392,393,394,395,396,397,398,399,400,401,402,403,404,405,406,407,408,409,410,411,412,413,414,415,416,417,418,419,420,421,422,423,424,425,426,427,428,429,430,431,432,433,434,435,436,437,438,439,440,441,442,443,444,445,446,447,448,449,450,451,452,453,454,455,456,457,458,459,460,461,462,463,464,465,466,467,468,469,470,471,472,473,474,475,476,477,478,479,480,481,482,483,484,485,486,487,488,489,490,491,492,493,494,495,496,497,498,499,500,501,502,503,504,505,506,507,508,509,510,511,512,513,514,515,516,517,518,519,520,521,522,523,524,525,526,527,528,529,530,531,532,533,534,535,536,537,538,539,540,541,542,543,544,545,546,547,548,549,550,551,552,553,554,555,556,557,558,559,560,561,562,563,564,565,566,567,568,569,570,571,572,573,574,575,576,577,578,579,580,581,582,583,584,585,586,587,588,589,590,591,592,593,594,595,596,597,598,599,600,601,602,603,604,605,606,607,608,609,610,611,612,613,614,615,616,617,618,619,620,621,622,623,624,625,626,627,628,629,630,631,632,633,634,635,636,637,638,639,640,641,642,643,644,645,646,647,648,649,650,651,652,653,654,655,656,657,658,659,660,661,662,663,664,665,666,667,668,669,670,671,672,673,674,675,676,677,678,679,680,681,682,683,684,685,686,687,688,689,690,691,692,693,694,695,696,697,698,699,700,701,702,703,704,705,706,707,708,709,710,711,712,713,714,715,716,717,718,719,720,721,722,723,724,725,726,727,728,729,730,731,732,733,734,735,736,737,738,739,740,741,742,743,744,745,746,747,748,749,750,751,752,753,754,755,756,757,758,759,760,761,762,763,764,765,766,767,768,769,770,771,772,773,774,775,776,777,778,779,780,781,782,783,784,785,786,787,788,789,790,791,792,793,794,795,796,797,798,799,800,801,802,803,804,805,806,807,808,809,810,811,812,813,814,815,816,817,818,819,820,821,822,823,824,825,826,827,828,829,830,831,832,833,834,835,836,837,838,839,840,841,842,843,844,845,846,847,848,849,850],"tree_info":[0,0,0,0,0,0,0,0,0,0,0,0,0,0,0,0,0,0,0,0,0,0,0,0,0,0,0,0,0,0,0,0,0,0,0,0,0,0,0,0,0,0,0,0,0,0,0,0,0,0,0,0,0,0,0,0,0,0,0,0,0,0,0,0,0,0,0,0,0,0,0,0,0,0,0,0,0,0,0,0,0,0,0,0,0,0,0,0,0,0,0,0,0,0,0,0,0,0,0,0,0,0,0,0,0,0,0,0,0,0,0,0,0,0,0,0,0,0,0,0,0,0,0,0,0,0,0,0,0,0,0,0,0,0,0,0,0,0,0,0,0,0,0,0,0,0,0,0,0,0,0,0,0,0,0,0,0,0,0,0,0,0,0,0,0,0,0,0,0,0,0,0,0,0,0,0,0,0,0,0,0,0,0,0,0,0,0,0,0,0,0,0,0,0,0,0,0,0,0,0,0,0,0,0,0,0,0,0,0,0,0,0,0,0,0,0,0,0,0,0,0,0,0,0,0,0,0,0,0,0,0,0,0,0,0,0,0,0,0,0,0,0,0,0,0,0,0,0,0,0,0,0,0,0,0,0,0,0,0,0,0,0,0,0,0,0,0,0,0,0,0,0,0,0,0,0,0,0,0,0,0,0,0,0,0,0,0,0,0,0,0,0,0,0,0,0,0,0,0,0,0,0,0,0,0,0,0,0,0,0,0,0,0,0,0,0,0,0,0,0,0,0,0,0,0,0,0,0,0,0,0,0,0,0,0,0,0,0,0,0,0,0,0,0,0,0,0,0,0,0,0,0,0,0,0,0,0,0,0,0,0,0,0,0,0,0,0,0,0,0,0,0,0,0,0,0,0,0,0,0,0,0,0,0,0,0,0,0,0,0,0,0,0,0,0,0,0,0,0,0,0,0,0,0,0,0,0,0,0,0,0,0,0,0,0,0,0,0,0,0,0,0,0,0,0,0,0,0,0,0,0,0,0,0,0,0,0,0,0,0,0,0,0,0,0,0,0,0,0,0,0,0,0,0,0,0,0,0,0,0,0,0,0,0,0,0,0,0,0,0,0,0,0,0,0,0,0,0,0,0,0,0,0,0,0,0,0,0,0,0,0,0,0,0,0,0,0,0,0,0,0,0,0,0,0,0,0,0,0,0,0,0,0,0,0,0,0,0,0,0,0,0,0,0,0,0,0,0,0,0,0,0,0,0,0,0,0,0,0,0,0,0,0,0,0,0,0,0,0,0,0,0,0,0,0,0,0,0,0,0,0,0,0,0,0,0,0,0,0,0,0,0,0,0,0,0,0,0,0,0,0,0,0,0,0,0,0,0,0,0,0,0,0,0,0,0,0,0,0,0,0,0,0,0,0,0,0,0,0,0,0,0,0,0,0,0,0,0,0,0,0,0,0,0,0,0,0,0,0,0,0,0,0,0,0,0,0,0,0,0,0,0,0,0,0,0,0,0,0,0,0,0,0,0,0,0,0,0,0,0,0,0,0,0,0,0,0,0,0,0,0,0,0,0,0,0,0,0,0,0,0,0,0,0,0,0,0,0,0,0,0,0,0,0,0,0,0,0,0,0,0,0,0,0,0,0,0,0,0,0,0,0,0,0,0,0,0,0,0,0,0,0,0,0,0,0,0,0,0,0,0,0,0,0,0,0,0,0,0,0,0,0,0,0,0,0,0,0,0,0,0,0,0,0,0,0,0,0,0,0,0,0,0,0,0,0,0,0,0,0,0,0,0,0,0,0,0,0,0,0,0,0,0,0,0,0,0,0,0,0,0,0,0,0,0,0,0,0,0,0,0,0,0,0,0,0,0,0,0,0,0,0,0,0,0,0,0,0,0,0,0,0,0,0,0,0,0,0,0,0,0,0,0,0,0,0,0,0,0,0,0,0,0,0,0,0,0,0,0,0],"trees":[{"base_weights":[1.5775693E-3,2.6961492E-2,-3.2105334E-2,4.9635935E-5,-1.4567442E-2],"categories":[],"categories_nodes":[],"categories_segments":[],"categories_sizes":[],"default_left":[0,0,0,0,0],"id":0,"left_children":[1,-1,3,-1,-1],"loss_changes":[2.818995E1,0E0,1.4175263E1,0E0,0E0],"parents":[2147483647,0,0,2,2],"right_children":[2,-1,4,-1,-1],"split_conditions":[-8.556E-1,2.6961492E-2,4.918E-1,4.9635935E-5,-1.4567442E-2],"split_indices":[9,0,9,0,0],"split_type":[0,0,0,0,0],"sum_hessian":[7.61E2,1.9E1,7.42E2,7.03E2,3.9E1],"tree_param":{"num_deleted":"0","num_feature":"18","num_nodes":"5","size_leaf_vector":"1"}},{"base_weights":[1.7359223E-3,8.260852E-1,-4.057991E-2,4.1270684E-3,2.5641367E-2,-3.1319543E-4,-2.1539655E-2],"categories":[],"categories_nodes":[],"categories_segments":[],"categories_sizes":[],"default_left":[0,0,0,0,0,0,0],"id":1,"left_children":[1,3,5,-1,-1,-1,-1],"loss_changes":[2.7209091E1,4.578039E0,1.715451E1,0E0,0E0,0E0,0E0],"parents":[2147483647,0,0,1,1,2,2],"right_children":[2,4,6,-1,-1,-1,-1],"split_conditions":[-1.3195E0,2.5400588E-1,5.0026047E1,4.1270684E-3,2.5641367E-2,-3.1319543E-4,-2.1539655E-2],"split_indices":[15,13,1,0,0,0,0],"split_type":[0,0,0,0,0,0,0],"sum_hessian":[7.72E2,3.4E1,7.38E2,1E1,2.4E1,7.18E2,2E1],"tree_param":{"num_deleted":"0","num_feature":"18","num_nodes":"7","size_leaf_vector":"1"}},{"base_weights":[-3.1446344E-3,7.831306E-1,-4.290225E-2,4.054583E-3,2.4416406E-2,-3.7848204E-4,-2.1097189E-2],"categories":[],"categories_nodes":[],"categories_segments":[],"categories_sizes":[],"default_left":[0,0,0,0,0,0,0],"id":2,"left_children":[1,3,5,-1,-1,-1,-1],"loss_changes":[2.408535E1,4.0216904E0,1.6335867E1,0E0,0E0,0E0,0E0],"parents":[2147483647,0,0,1,1,2,2],"right_children":[2,4,6,-1,-1,-1,-1],"split_conditions":[-1.3195E0,2.5400588E-1,5.0026047E1,4.054583E-3,2.4416406E-2,-3.7848204E-4,-2.1097189E-2],"split_indices":[15,13,1,0,0,0,0],"split_type":[0,0,0,0,0,0,0],"sum_hessian":[7.62E2,3.3E1,7.29E2,1E1,2.3E1,7.09E2,2E1],"tree_param":{"num_deleted":"0","num_feature":"18","num_nodes":"7","size_leaf_vector":"1"}},{"base_weights":[3.0175128E-3,2.6711771E-2,-2.1330316E-2,-1.2678026E-4,-2.516504E-2],"categories":[],"categories_nodes":[],"categories_segments":[],"categories_sizes":[],"default_left":[0,0,0,0,0],"id":3,"left_children":[1,-1,3,-1,-1],"loss_changes":[2.025799E1,0E0,1.2181858E1,0E0,0E0],"parents":[2147483647,0,0,2,2],"right_children":[2,-1,4,-1,-1],"split_conditions":[-2.2559E0,2.6711771E-2,7.859E-1,-1.2678026E-4,-2.516504E-2],"split_indices":[17,0,8,0,0],"split_type":[0,0,0,0,0],"sum_hessian":[7.65E2,1.3E1,7.52E2,7.44E2,8E0],"tree_param":{"num_deleted":"0","num_feature":"18","num_nodes":"5","size_leaf_vector":"1"}},{"base_weights":[-1.7347936E-4,7.840482E-1,-4.1137036E-2,3.9855973E-3,2.4302177E-2,-3.5152887E-4,-2.0455472E-2],"categories":[],"categories_nodes":[],"categories_segments":[],"categories_sizes":[],"default_left":[0,0,0,0,0,0,0],"id":4,"left_children":[1,3,5,-1,-1,-1,-1],"loss_changes":[2.4645443E1,4.059704E0,1.5378149E1,0E0,0E0,0E0,0E0],"parents":[2147483647,0,0,1,1,2,2],"right_children":[2,4,6,-1,-1,-1,-1],"split_conditions":[-1.3195E0,2.5400588E-1,5.0026047E1,3.9855973E-3,2.4302177E-2,-3.5152887E-4,-2.0455472E-2],"split_indices":[15,13,1,0,0,0,0],"split_type":[0,0,0,0,0,0,0],"sum_hessian":[7.59E2,3.4E1,7.25E2,1E1,2.4E1,7.05E2,2E1],"tree_param":{"num_deleted":"0","num_feature":"18","num_nodes":"7","size_leaf_vector":"1"}},{"base_weights":[1.2592177E-4,7.676869E-1,-3.937308E-2,3.9155963E-3,2.3788443E-2,-3.3091105E-4,-2.0035278E-2],"categories":[],"categories_nodes":[],"categories_segments":[],"categories_sizes":[],"default_left":[0,0,0,0,0,0,0],"id":5,"left_children":[1,3,5,-1,-1,-1,-1],"loss_changes":[2.3592066E1,3.879982E0,1.4780652E1,0E0,0E0,0E0,0E0],"parents":[2147483647,0,0,1,1,2,2],"right_children":[2,4,6,-1,-1,-1,-1],"split_conditions":[-1.3195E0,2.5400588E-1,5.0026047E1,3.9155963E-3,2.3788443E-2,-3.3091105E-4,-2.0035278E-2],"split_indices":[15,13,1,0,0,0,0],"split_type":[0,0,0,0,0,0,0],"sum_hessian":[7.7E2,3.4E1,7.36E2,1E1,2.4E1,7.16E2,2E1],"tree_param":{"num_deleted":"0","num_feature":"18","num_nodes":"7","size_leaf_vector":"1"}},{"base_weights":[-1.6358014E-3,7.614177E-1,-3.8831063E-2,3.7733628E-3,2.3271115E-2,-3.308962E-4,-1.9623714E-2],"categories":[],"categories_nodes":[],"categories_segments":[],"categories_sizes":[],"default_left":[0,0,0,0,0,0,0],"id":6,"left_children":[1,3,5,-1,-1,-1,-1],"loss_changes":[2.2034039E1,3.353815E0,1.4169589E1,0E0,0E0,0E0,0E0],"parents":[2147483647,0,0,1,1,2,2],"right_children":[2,4,6,-1,-1,-1,-1],"split_conditions":[-1.3195E0,2.5400588E-1,5.0026047E1,3.7733628E-3,2.3271115E-2,-3.308962E-4,-1.9623714E-2],"split_indices":[15,13,1,0,0,0,0],"split_type":[0,0,0,0,0,0,0],"sum_hessian":[7.68E2,3.2E1,7.36E2,9E0,2.3E1,7.16E2,2E1],"tree_param":{"num_deleted":"0","num_feature":"18","num_nodes":"7","size_leaf_vector":"1"}},{"base_weights":[-3.005261E-4,2.3838656E-2,-3.0005822E-2,9.553635E-5,-1.3833142E-2],"categories":[],"categories_nodes":[],"categories_segments":[],"categories_sizes":[],"default_left":[0,0,0,0,0],"id":7,"left_children":[1,-1,3,-1,-1],"loss_changes":[2.2112555E1,0E0,1.3434656E1,0E0,0E0],"parents":[2147483647,0,0,2,2],"right_children":[2,-1,4,-1,-1],"split_conditions":[-8.556E-1,2.3838656E-2,4.918E-1,9.553635E-5,-1.3833142E-2],"split_indices":[9,0,9,0,0],"split_type":[0,0,0,0,0],"sum_hessian":[7.64E2,1.9E1,7.45E2,7.04E2,4.1E1],"tree_param":{"num_deleted":"0","num_feature":"18","num_nodes":"5","size_leaf_vector":"1"}},{"base_weights":[2.1349255E-3,2.3353297E-2,-2.6865223E-2,9.067073E-5,-1.3706807E-2],"categories":[],"categories_nodes":[],"categories_segments":[],"categories_sizes":[],"default_left":[0,0,0,0,0],"id":8,"left_children":[1,-1,3,-1,-1],"loss_changes":[2.111196E1,0E0,1.2082293E1,0E0,0E0],"parents":[2147483647,0,0,2,2],"right_children":[2,-1,4,-1,-1],"split_conditions":[-8.556E-1,2.3353297E-2,5.135E-1,9.067073E-5,-1.3706807E-2],"split_indices":[9,0,9,0,0],"split_type":[0,0,0,0,0],"sum_hessian":[7.65E2,1.9E1,7.46E2,7.09E2,3.7E1],"tree_param":{"num_deleted":"0","num_feature":"18","num_nodes":"5","size_leaf_vector":"1"}},{"base_weights":[-1.4347287E-3,2.287782E-2,-2.9933756E-2,5.8293714E-5,-1.3236315E-2],"categories":[],"categories_nodes":[],"categories_segments":[],"categories_sizes":[],"default_left":[0,0,0,0,0],"id":9,"left_children":[1,-1,3,-1,-1],"loss_changes":[2.0415356E1,0E0,1.2240062E1,0E0,0E0],"parents":[2147483647,0,0,2,2],"right_children":[2,-1,4,-1,-1],"split_conditions":[-8.556E-1,2.287782E-2,4.918E-1,5.8293714E-5,-1.3236315E-2],"split_indices":[9,0,9,0,0],"split_type":[0,0,0,0,0],"sum_hessian":[7.65E2,1.9E1,7.46E2,7.05E2,4.1E1],"tree_param":{"num_deleted":"0","num_feature":"18","num_nodes":"5","size_leaf_vector":"1"}},{"base_weights":[1.7159432E-3,7.0279187E-1,-3.4517422E-2,2.9674373E-3,2.1429654E-2,-2.526998E-4,-1.8607816E-2],"categories":[],"categories_nodes":[],"categories_segments":[],"categories_sizes":[],"default_left":[0,0,0,0,0,0,0],"id":10,"left_children":[1,3,5,-1,-1,-1,-1],"loss_changes":[1.968643E1,3.2049026E0,1.282464E1,0E0,0E0,0E0,0E0],"parents":[2147483647,0,0,1,1,2,2],"right_children":[2,4,6,-1,-1,-1,-1],"split_conditions":[-1.3195E0,2.437535E-1,5.0026047E1,2.9674373E-3,2.1429654E-2,-2.526998E-4,-1.8607816E-2],"split_indices":[15,13,1,0,0,0,0],"split_type":[0,0,0,0,0,0,0],"sum_hessian":[7.67E2,3.4E1,7.33E2,9E0,2.5E1,7.13E2,2E1],"tree_param":{"num_deleted":"0","num_feature":"18","num_nodes":"7","size_leaf_vector":"1"}},{"base_weights":[-1.2575221E-3,6.880234E-1,-3.715721E-2,3.5690763E-3,2.1289904E-2,-3.2771094E-4,-1.8225575E-2],"categories":[],"categories_nodes":[],"categories_segments":[],"categories_sizes":[],"default_left":[0,0,0,0,0,0,0],"id":11,"left_children":[1,3,5,-1,-1,-1,-1],"loss_changes":[1.9036407E1,3.0675945E0,1.218929E1,0E0,0E0,0E0,0E0],"parents":[2147483647,0,0,1,1,2,2],"right_children":[2,4,6,-1,-1,-1,-1],"split_conditions":[-1.3195E0,2.5400588E-1,5.0026047E1,3.5690763E-3,2.1289904E-2,-3.2771094E-4,-1.8225575E-2],"split_indices":[15,13,1,0,0,0,0],"split_type":[0,0,0,0,0,0,0],"sum_hessian":[7.61E2,3.4E1,7.27E2,1E1,2.4E1,7.07E2,2E1],"tree_param":{"num_deleted":"0","num_feature":"18","num_nodes":"7","size_leaf_vector":"1"}},{"base_weights":[-3.8221187E-3,2.1463437E-2,-2.9528653E-2,3.2312517E-5,-1.2627124E-2],"categories":[],"categories_nodes":[],"categories_segments":[],"categories_sizes":[],"default_left":[0,0,0,0,0],"id":12,"left_children":[1,-1,3,-1,-1],"loss_changes":[1.7267176E1,0E0,1.1096305E1,0E0,0E0],"parents":[2147483647,0,0,2,2],"right_children":[2,-1,4,-1,-1],"split_conditions":[-8.556E-1,2.1463437E-2,4.918E-1,3.2312517E-5,-1.2627124E-2],"split_indices":[9,0,9,0,0],"split_type":[0,0,0,0,0],"sum_hessian":[7.62E2,1.8E1,7.44E2,7.03E2,4.1E1],"tree_param":{"num_deleted":"0","num_feature":"18","num_nodes":"5","size_leaf_vector":"1"}},{"base_weights":[-1.53686E-3,6.635119E-1,-3.593739E-2,2.8151504E-3,2.0225817E-2,-3.1995258E-4,-1.7656812E-2],"categories":[],"categories_nodes":[],"categories_segments":[],"categories_sizes":[],"default_left":[0,0,0,0,0,0,0],"id":13,"left_children":[1,3,5,-1,-1,-1,-1],"loss_changes":[1.7715399E1,2.8465538E0,1.1439758E1,0E0,0E0,0E0,0E0],"parents":[2147483647,0,0,1,1,2,2],"right_children":[2,4,6,-1,-1,-1,-1],"split_conditions":[-1.3195E0,2.437535E-1,5.0026047E1,2.8151504E-3,2.0225817E-2,-3.1995258E-4,-1.7656812E-2],"split_indices":[15,13,1,0,0,0,0],"split_type":[0,0,0,0,0,0,0],"sum_hessian":[7.66E2,3.4E1,7.32E2,9E0,2.5E1,7.12E2,2E1],"tree_param":{"num_deleted":"0","num_feature":"18","num_nodes":"7","size_leaf_vector":"1"}},{"base_weights":[1.5682607E-3,6.355224E-1,-3.0466476E-2,2.7672502E-3,1.9469632E-2,-1.9146762E-4,-1.7294107E-2],"categories":[],"categories_nodes":[],"categories_segments":[],"categories_sizes":[],"default_left":[0,0,0,0,0,0,0],"id":14,"left_children":[1,3,5,-1,-1,-1,-1],"loss_changes":[1.5657459E1,2.5832615E0,1.1133066E1,0E0,0E0,0E0,0E0],"parents":[2147483647,0,0,1,1,2,2],"right_children":[2,4,6,-1,-1,-1,-1],"split_conditions":[-1.3195E0,2.437535E-1,5.0026047E1,2.7672502E-3,1.9469632E-2,-1.9146762E-4,-1.7294107E-2],"split_indices":[15,13,1,0,0,0,0],"split_type":[0,0,0,0,0,0,0],"sum_hessian":[7.63E2,3.3E1,7.3E2,9E0,2.4E1,7.1E2,2E1],"tree_param":{"num_deleted":"0","num_feature":"18","num_nodes":"7","size_leaf_vector":"1"}},{"base_weights":[-2.041141E-3,6.8395585E-1,-3.072625E-2,2.297593E-2,8.193262E-3,-1.868591E-2,-2.859432E-4],"categories":[],"categories_nodes":[],"categories_segments":[],"categories_sizes":[],"default_left":[0,0,0,0,0,0,0],"id":15,"left_children":[1,3,5,-1,-1,-1,-1],"loss_changes":[1.5239475E1,1.4282408E0,1.0285359E1,0E0,0E0,0E0,0E0],"parents":[2147483647,0,0,1,1,2,2],"right_children":[2,4,6,-1,-1,-1,-1],"split_conditions":[-1.4209E0,-1.0384E0,-6.325E-1,2.297593E-2,8.193262E-3,-1.868591E-2,-2.859432E-4],"split_indices":[15,9,0,0,0,0,0],"split_type":[0,0,0,0,0,0,0],"sum_hessian":[7.66E2,2.7E1,7.39E2,1.2E1,1.5E1,1.5E1,7.24E2],"tree_param":{"num_deleted":"0","num_feature":"18","num_nodes":"7","size_leaf_vector":"1"}},{"base_weights":[1.017728E-3,2.0107273E-2,-2.4039097E-2,1.1004316E-4,-1.1858441E-2],"categories":[],"categories_nodes":[],"categories_segments":[],"categories_sizes":[],"default_left":[0,0,0,0,0],"id":16,"left_children":[1,-1,3,-1,-1],"loss_changes":[1.5683645E1,0E0,9.712565E0,0E0,0E0],"parents":[2147483647,0,0,2,2],"right_children":[2,-1,4,-1,-1],"split_conditions":[-8.556E-1,2.0107273E-2,4.918E-1,1.1004316E-4,-1.1858441E-2],"split_indices":[9,0,9,0,0],"split_type":[0,0,0,0,0],"sum_hessian":[7.63E2,1.9E1,7.44E2,7.04E2,4E1],"tree_param":{"num_deleted":"0","num_feature":"18","num_nodes":"5","size_leaf_vector":"1"}},{"base_weights":[1.9354138E-3,6.3715655E-1,-3.0341243E-2,2.0090602E-2,5.0072814E-3,-1.9124538E-2,-2.8224348E-4],"categories":[],"categories_nodes":[],"categories_segments":[],"categories_sizes":[],"default_left":[0,0,0,0,0,0,0],"id":17,"left_children":[1,3,5,-1,-1,-1,-1],"loss_changes":[1.5724339E1,2.1500502E0,1.0230267E1,0E0,0E0,0E0,0E0],"parents":[2147483647,0,0,1,1,2,2],"right_children":[2,4,6,-1,-1,-1,-1],"split_conditions":[-1.3195E0,-9.189E-1,-6.325E-1,2.0090602E-2,5.0072814E-3,-1.9124538E-2,-2.8224348E-4],"split_indices":[15,17,0,0,0,0,0],"split_type":[0,0,0,0,0,0,0],"sum_hessian":[7.59E2,3.3E1,7.26E2,2.1E1,1.2E1,1.4E1,7.12E2],"tree_param":{"num_deleted":"0","num_feature":"18","num_nodes":"7","size_leaf_vector":"1"}},{"base_weights":[2.6307052E-3,7.352186E-1,-2.2893578E-2,5.442572E-3,2.088758E-2,1.3329179E-4,-1.1502922E-2],"categories":[],"categories_nodes":[],"categories_segments":[],"categories_sizes":[],"default_left":[0,0,0,0,0,0,0],"id":18,"left_children":[1,3,5,-1,-1,-1,-1],"loss_changes":[1.4487085E1,7.0827675E-1,9.376694E0,0E0,0E0,0E0,0E0],"parents":[2147483647,0,0,1,1,2,2],"right_children":[2,4,6,-1,-1,-1,-1],"split_conditions":[-8.343E-1,3.1472877E-1,4.918E-1,5.442572E-3,2.088758E-2,1.3329179E-4,-1.1502922E-2],"split_indices":[9,14,9,0,0,0,0],"split_type":[0,0,0,0,0,0,0],"sum_hessian":[7.67E2,2.2E1,7.45E2,6E0,1.6E1,7.04E2,4.1E1],"tree_param":{"num_deleted":"0","num_feature":"18","num_nodes":"7","size_leaf_vector":"1"}},{"base_weights":[-1.4900767E-3,5.932602E-1,-3.2464087E-2,2.9948584E-3,1.8399037E-2,-2.8002317E-4,-1.6109498E-2],"categories":[],"categories_nodes":[],"categories_segments":[],"categories_sizes":[],"default_left":[0,0,0,0,0,0,0],"id":19,"left_children":[1,3,5,-1,-1,-1,-1],"loss_changes":[1.41728945E1,2.339138E0,9.53485E0,0E0,0E0,0E0,0E0],"parents":[2147483647,0,0,1,1,2,2],"right_children":[2,4,6,-1,-1,-1,-1],"split_conditions":[-1.3195E0,2.5400588E-1,5.0026047E1,2.9948584E-3,1.8399037E-2,-2.8002317E-4,-1.6109498E-2],"split_indices":[15,13,1,0,0,0,0],"split_type":[0,0,0,0,0,0,0],"sum_hessian":[7.61E2,3.4E1,7.27E2,1E1,2.4E1,7.07E2,2E1],"tree_param":{"num_deleted":"0","num_feature":"18","num_nodes":"7","size_leaf_vector":"1"}},{"base_weights":[2.8584967E-3,7.0909125E-1,-2.1815175E-2,5.3127366E-3,2.011338E-2,1.0669427E-4,-1.08564515E-2],"categories":[],"categories_nodes":[],"categories_segments":[],"categories_sizes":[],"default_left":[0,0,0,0,0,0,0],"id":20,"left_children":[1,3,5,-1,-1,-1,-1],"loss_changes":[1.3464753E1,6.277151E-1,8.148768E0,0E0,0E0,0E0,0E0],"parents":[2147483647,0,0,1,1,2,2],"right_children":[2,4,6,-1,-1,-1,-1],"split_conditions":[-8.343E-1,3.1472877E-1,4.918E-1,5.3127366E-3,2.011338E-2,1.0669427E-4,-1.08564515E-2],"split_indices":[9,14,9,0,0,0,0],"split_type":[0,0,0,0,0,0,0],"sum_hessian":[7.65E2,2.2E1,7.43E2,6E0,1.6E1,7.03E2,4E1],"tree_param":{"num_deleted":"0","num_feature":"18","num_nodes":"7","size_leaf_vector":"1"}},{"base_weights":[1.1360942E-3,5.721053E-1,-2.849217E-2,2.3720148E-3,1.7464358E-2,-2.0003672E-4,-1.6216474E-2],"categories":[],"categories_nodes":[],"categories_segments":[],"categories_sizes":[],"default_left":[0,0,0,0,0,0,0],"id":21,"left_children":[1,3,5,-1,-1,-1,-1],"loss_changes":[1.3060129E1,2.1518898E0,9.371412E0,0E0,0E0,0E0,0E0],"parents":[2147483647,0,0,1,1,2,2],"right_children":[2,4,6,-1,-1,-1,-1],"split_conditions":[-1.3195E0,2.437535E-1,5.0026047E1,2.3720148E-3,1.7464358E-2,-2.0003672E-4,-1.6216474E-2],"split_indices":[15,13,1,0,0,0,0],"split_type":[0,0,0,0,0,0,0],"sum_hessian":[7.64E2,3.4E1,7.3E2,9E0,2.5E1,7.11E2,1.9E1],"tree_param":{"num_deleted":"0","num_feature":"18","num_nodes":"7","size_leaf_vector":"1"}},{"base_weights":[8.8300835E-4,1.6922316E-2,-2.2754425E-2,3.175703E-4,-8.094053E-3],"categories":[],"categories_nodes":[],"categories_segments":[],"categories_sizes":[],"default_left":[0,0,0,0,0],"id":22,"left_children":[1,-1,3,-1,-1],"loss_changes":[1.2596758E1,0E0,8.18847E0,0E0,0E0],"parents":[2147483647,0,0,2,2],"right_children":[2,-1,4,-1,-1],"split_conditions":[-8.343E-1,1.6922316E-2,3.21E-1,3.175703E-4,-8.094053E-3],"split_indices":[9,0,9,0,0],"split_type":[0,0,0,0,0],"sum_hessian":[7.72E2,2.2E1,7.5E2,6.75E2,7.5E1],"tree_param":{"num_deleted":"0","num_feature":"18","num_nodes":"5","size_leaf_vector":"1"}},{"base_weights":[2.3213653E-3,5.51949E-1,-2.6362589E-2,2.2948587E-3,1.6846173E-2,-1.567471E-4,-1.514704E-2],"categories":[],"categories_nodes":[],"categories_segments":[],"categories_sizes":[],"default_left":[0,0,0,0,0,0,0],"id":23,"left_children":[1,3,5,-1,-1,-1,-1],"loss_changes":[1.2105601E1,1.9989386E0,8.551308E0,0E0,0E0,0E0,0E0],"parents":[2147483647,0,0,1,1,2,2],"right_children":[2,4,6,-1,-1,-1,-1],"split_conditions":[-1.3195E0,2.437535E-1,5.0026047E1,2.2948587E-3,1.6846173E-2,-1.567471E-4,-1.514704E-2],"split_indices":[15,13,1,0,0,0,0],"split_type":[0,0,0,0,0,0,0],"sum_hessian":[7.6E2,3.4E1,7.26E2,9E0,2.5E1,7.06E2,2E1],"tree_param":{"num_deleted":"0","num_feature":"18","num_nodes":"7","size_leaf_vector":"1"}},{"base_weights":[-8.220893E-4,5.540085E-1,-2.884638E-2,2.9097565E-3,1.6740644E-2,-2.331787E-4,-1.483589E-2],"categories":[],"categories_nodes":[],"categories_segments":[],"categories_sizes":[],"default_left":[0,0,0,0,0,0,0],"id":24,"left_children":[1,3,5,-1,-1,-1,-1],"loss_changes":[1.199246E1,1.6611032E0,8.11562E0,0E0,0E0,0E0,0E0],"parents":[2147483647,0,0,1,1,2,2],"right_children":[2,4,6,-1,-1,-1,-1],"split_conditions":[-1.3195E0,2.5400588E-1,5.0026047E1,2.9097565E-3,1.6740644E-2,-2.331787E-4,-1.483589E-2],"split_indices":[15,13,1,0,0,0,0],"split_type":[0,0,0,0,0,0,0],"sum_hessian":[7.63E2,3.3E1,7.3E2,9E0,2.4E1,7.1E2,2E1],"tree_param":{"num_deleted":"0","num_feature":"18","num_nodes":"7","size_leaf_vector":"1"}},{"base_weights":[3.0814926E-3,1.6024316E-2,-1.9415088E-2,1.143164E-4,-1.0466057E-2],"categories":[],"categories_nodes":[],"categories_segments":[],"categories_sizes":[],"default_left":[0,0,0,0,0],"id":25,"left_children":[1,-1,3,-1,-1],"loss_changes":[1.1220429E1,0E0,7.266617E0,0E0,0E0],"parents":[2147483647,0,0,2,2],"right_children":[2,-1,4,-1,-1],"split_conditions":[-8.343E-1,1.6024316E-2,4.918E-1,1.143164E-4,-1.0466057E-2],"split_indices":[9,0,9,0,0],"split_type":[0,0,0,0,0],"sum_hessian":[7.66E2,2.2E1,7.44E2,7.06E2,3.8E1],"tree_param":{"num_deleted":"0","num_feature":"18","num_nodes":"5","size_leaf_vector":"1"}},{"base_weights":[-7.2101963E-4,5.181627E-1,-2.5880339E-2,1.7977235E-3,1.5695468E-2,1.0622523E-3,-4.41467E-3],"categories":[],"categories_nodes":[],"categories_segments":[],"categories_sizes":[],"default_left":[0,0,0,0,0,0,0],"id":26,"left_children":[1,3,5,-1,-1,-1,-1],"loss_changes":[1.0186368E1,1.6817083E0,7.8450527E0,0E0,0E0,0E0,0E0],"parents":[2147483647,0,0,1,1,2,2],"right_children":[2,4,6,-1,-1,-1,-1],"split_conditions":[-1.3195E0,2.437535E-1,1.252E-1,1.7977235E-3,1.5695468E-2,1.0622523E-3,-4.41467E-3],"split_indices":[15,13,11,0,0,0,0],"split_type":[0,0,0,0,0,0,0],"sum_hessian":[7.72E2,3.2E1,7.4E2,8E0,2.4E1,5.12E2,2.28E2],"tree_param":{"num_deleted":"0","num_feature":"18","num_nodes":"7","size_leaf_vector":"1"}},{"base_weights":[-9.18404E-6,6.2381136E-1,-2.1760657E-2,5.069099E-3,1.8147083E-2,3.04585E-4,-7.584446E-3],"categories":[],"categories_nodes":[],"categories_segments":[],"categories_sizes":[],"default_left":[0,0,0,0,0,0,0],"id":27,"left_children":[1,3,5,-1,-1,-1,-1],"loss_changes":[1.0504729E1,5.856161E-1,7.2760386E0,0E0,0E0,0E0,0E0],"parents":[2147483647,0,0,1,1,2,2],"right_children":[2,4,6,-1,-1,-1,-1],"split_conditions":[-8.343E-1,3.1547028E-1,3.21E-1,5.069099E-3,1.8147083E-2,3.04585E-4,-7.584446E-3],"split_indices":[9,14,9,0,0,0,0],"split_type":[0,0,0,0,0,0,0],"sum_hessian":[7.66E2,2.2E1,7.44E2,7E0,1.5E1,6.68E2,7.6E1],"tree_param":{"num_deleted":"0","num_feature":"18","num_nodes":"7","size_leaf_vector":"1"}},{"base_weights":[5.837583E-4,5.025652E-1,-2.4778519E-2,2.6117114E-3,1.5663892E-2,-1.780027E-2,-1.7782247E-4],"categories":[],"categories_nodes":[],"categories_segments":[],"categories_sizes":[],"default_left":[0,0,0,0,0,0,0],"id":28,"left_children":[1,3,5,-1,-1,-1,-1],"loss_changes":[9.816915E0,1.6503954E0,8.950535E0,0E0,0E0,0E0,0E0],"parents":[2147483647,0,0,1,1,2,2],"right_children":[2,4,6,-1,-1,-1,-1],"split_conditions":[-1.3195E0,2.5400588E-1,-6.325E-1,2.6117114E-3,1.5663892E-2,-1.780027E-2,-1.7782247E-4],"split_indices":[15,13,0,0,0,0,0],"split_type":[0,0,0,0,0,0,0],"sum_hessian":[7.63E2,3.3E1,7.3E2,1E1,2.3E1,1.4E1,7.16E2],"tree_param":{"num_deleted":"0","num_feature":"18","num_nodes":"7","size_leaf_vector":"1"}},{"base_weights":[-1.8034076E-3,1.5647471E-1,-7.6445356E-2,2.4645228E-3,1.4577809E-2,-1.7459393E-2,-1.3283424E-3],"categories":[],"categories_nodes":[],"categories_segments":[],"categories_sizes":[],"default_left":[0,0,0,0,0,0,0],"id":29,"left_children":[1,3,5,-1,-1,-1,-1],"loss_changes":[9.18222E0,5.8888984E0,7.40514E0,0E0,0E0,0E0,0E0],"parents":[2147483647,0,0,1,1,2,2],"right_children":[2,4,6,-1,-1,-1,-1],"split_conditions":[-1.54E-1,2.475E1,-6.325E-1,2.4645228E-3,1.4577809E-2,-1.7459393E-2,-1.3283424E-3],"split_indices":[9,1,0,0,0,0,0],"split_type":[0,0,0,0,0,0,0],"sum_hessian":[7.69E2,2.45E2,5.24E2,2.21E2,2.4E1,1.4E1,5.1E2],"tree_param":{"num_deleted":"0","num_feature":"18","num_nodes":"7","size_leaf_vector":"1"}},{"base_weights":[2.1932393E-3,1.7944766E-2,-1.4203964E-2,1.4025738E-3,-3.4088006E-3],"categories":[],"categories_nodes":[],"categories_segments":[],"categories_sizes":[],"default_left":[0,0,0,0,0],"id":30,"left_children":[1,-1,3,-1,-1],"loss_changes":[9.13889E0,0E0,6.6403337E0,0E0,0E0],"parents":[2147483647,0,0,2,2],"right_children":[2,-1,4,-1,-1],"split_conditions":[-1.0384E0,1.7944766E-2,8.62E-2,1.4025738E-3,-3.4088006E-3],"split_indices":[9,0,11,0,0],"split_type":[0,0,0,0,0],"sum_hessian":[7.63E2,1.3E1,7.5E2,4.78E2,2.72E2],"tree_param":{"num_deleted":"0","num_feature":"18","num_nodes":"5","size_leaf_vector":"1"}},{"base_weights":[1.0531744E-3,-2.8340593E-2,4.1760457E-1,-1.5599073E-4,-1.7998453E-2,1.49619905E-2,-6.381174E-4],"categories":[],"categories_nodes":[],"categories_segments":[],"categories_sizes":[],"default_left":[0,0,0,0,0,0,0],"id":31,"left_children":[1,3,5,-1,-1,-1,-1],"loss_changes":[9.489508E0,1.1137773E1,4.3048315E0,0E0,0E0,0E0,0E0],"parents":[2147483647,0,0,1,1,2,2],"right_children":[2,4,6,-1,-1,-1,-1],"split_conditions":[2.437535E-1,5.0026047E1,-7.894E-1,-1.5599073E-4,-1.7998453E-2,1.49619905E-2,-6.381174E-4],"split_indices":[13,1,15,0,0,0,0],"split_type":[0,0,0,0,0,0,0],"sum_hessian":[7.67E2,7.2E2,4.7E1,7.02E2,1.8E1,3.2E1,1.5E1],"tree_param":{"num_deleted":"0","num_feature":"18","num_nodes":"7","size_leaf_vector":"1"}},{"base_weights":[-3.2589526E-4,3.5142294E-1,-3.4837414E-2,3.570039E-3,1.5237652E-2,8.704787E-4,-4.7383904E-3],"categories":[],"categories_nodes":[],"categories_segments":[],"categories_sizes":[],"default_left":[0,0,0,0,0,0,0],"id":32,"left_children":[1,3,5,-1,-1,-1,-1],"loss_changes":[9.386214E0,3.4221659E0,7.7542443E0,0E0,0E0,0E0,0E0],"parents":[2147483647,0,0,1,1,2,2],"right_children":[2,4,6,-1,-1,-1,-1],"split_conditions":[-8.573E-1,2.437535E-1,1.252E-1,3.570039E-3,1.5237652E-2,8.704787E-4,-4.7383904E-3],"split_indices":[17,13,11,0,0,0,0],"split_type":[0,0,0,0,0,0,0],"sum_hessian":[7.65E2,6.5E1,7E2,4E1,2.5E1,4.86E2,2.14E2],"tree_param":{"num_deleted":"0","num_feature":"18","num_nodes":"7","size_leaf_vector":"1"}},{"base_weights":[5.71719E-4,3.42571E-1,-3.3180125E-2,3.4406486E-3,1.491365E-2,-1.675311E-2,-3.959326E-4],"categories":[],"categories_nodes":[],"categories_segments":[],"categories_sizes":[],"default_left":[0,0,0,0,0,0,0],"id":33,"left_children":[1,3,5,-1,-1,-1,-1],"loss_changes":[8.877877E0,3.3168936E0,7.699724E0,0E0,0E0,0E0,0E0],"parents":[2147483647,0,0,1,1,2,2],"right_children":[2,4,6,-1,-1,-1,-1],"split_conditions":[-8.573E-1,2.437535E-1,-6.325E-1,3.4406486E-3,1.491365E-2,-1.675311E-2,-3.959326E-4],"split_indices":[17,13,0,0,0,0,0],"split_type":[0,0,0,0,0,0,0],"sum_hessian":[7.61E2,6.5E1,6.96E2,4E1,2.5E1,1.4E1,6.82E2],"tree_param":{"num_deleted":"0","num_feature":"18","num_nodes":"7","size_leaf_vector":"1"}},{"base_weights":[2.7774496E-3,-2.4813036E-2,4.061839E-1,-1.2551186E-4,-1.6731136E-2,1.4304304E-2,-4.79368E-4],"categories":[],"categories_nodes":[],"categories_segments":[],"categories_sizes":[],"default_left":[0,0,0,0,0,0,0],"id":34,"left_children":[1,3,5,-1,-1,-1,-1],"loss_changes":[8.534431E0,9.221281E0,3.6400833E0,0E0,0E0,0E0,0E0],"parents":[2147483647,0,0,1,1,2,2],"right_children":[2,4,6,-1,-1,-1,-1],"split_conditions":[2.437535E-1,5.0026047E1,-7.894E-1,-1.2551186E-4,-1.6731136E-2,1.4304304E-2,-4.79368E-4],"split_indices":[13,1,15,0,0,0,0],"split_type":[0,0,0,0,0,0,0],"sum_hessian":[7.59E2,7.14E2,4.5E1,6.97E2,1.7E1,3.1E1,1.4E1],"tree_param":{"num_deleted":"0","num_feature":"18","num_nodes":"7","size_leaf_vector":"1"}},{"base_weights":[2.045046E-4,3.0318257E-1,-3.450467E-2,2.641616E-3,1.3739875E-2,-1.6198795E-2,-4.4337971E-4],"categories":[],"categories_nodes":[],"categories_segments":[],"categories_sizes":[],"default_left":[0,0,0,0,0,0,0],"id":35,"left_children":[1,3,5,-1,-1,-1,-1],"loss_changes":[8.193608E0,3.7252479E0,7.1426635E0,0E0,0E0,0E0,0E0],"parents":[2147483647,0,0,1,1,2,2],"right_children":[2,4,6,-1,-1,-1,-1],"split_conditions":[-7.947E-1,2.1205306E-1,-6.325E-1,2.641616E-3,1.3739875E-2,-1.6198795E-2,-4.4337971E-4],"split_indices":[17,13,0,0,0,0,0],"split_type":[0,0,0,0,0,0,0],"sum_hessian":[7.71E2,7.6E1,6.95E2,4.6E1,3E1,1.4E1,6.81E2],"tree_param":{"num_deleted":"0","num_feature":"18","num_nodes":"7","size_leaf_vector":"1"}},{"base_weights":[2.1436398E-3,9.442269E-2,-1.07360594E-1,1.7434094E-2,1.7939154E-3,-2.076916E-3,-1.6027344E-2],"categories":[],"categories_nodes":[],"categories_segments":[],"categories_sizes":[],"default_left":[0,0,0,0,0,0,0],"id":36,"left_children":[1,3,5,-1,-1,-1,-1],"loss_changes":[7.823066E0,5.4072304E0,4.256706E0,0E0,0E0,0E0,0E0],"parents":[2147483647,0,0,1,1,2,2],"right_children":[2,4,6,-1,-1,-1,-1],"split_conditions":[1.07E-2,-1.0384E0,1.5982E0,1.7434094E-2,1.7939154E-3,-2.076916E-3,-1.6027344E-2],"split_indices":[11,9,10,0,0,0,0],"split_type":[0,0,0,0,0,0,0],"sum_hessian":[7.66E2,4.16E2,3.5E2,1E1,4.06E2,3.4E2,1E1],"tree_param":{"num_deleted":"0","num_feature":"18","num_nodes":"7","size_leaf_vector":"1"}},{"base_weights":[2.1889552E-3,-2.4456354E-2,3.8722944E-1,-9.580695E-5,-1.6772319E-2,1.3463327E-2,-3.3525488E-4],"categories":[],"categories_nodes":[],"categories_segments":[],"categories_sizes":[],"default_left":[0,0,0,0,0,0,0],"id":37,"left_children":[1,3,5,-1,-1,-1,-1],"loss_changes":[7.939379E0,9.730116E0,3.1821694E0,0E0,0E0,0E0,0E0],"parents":[2147483647,0,0,1,1,2,2],"right_children":[2,4,6,-1,-1,-1,-1],"split_conditions":[2.437535E-1,5.0026047E1,-7.894E-1,-9.580695E-5,-1.6772319E-2,1.3463327E-2,-3.3525488E-4],"split_indices":[13,1,15,0,0,0,0],"split_type":[0,0,0,0,0,0,0],"sum_hessian":[7.66E2,7.2E2,4.6E1,7.02E2,1.8E1,3.2E1,1.4E1],"tree_param":{"num_deleted":"0","num_feature":"18","num_nodes":"7","size_leaf_vector":"1"}},{"base_weights":[1.3694617E-3,-2.4396377E-2,3.8239866E-1,-1.0627074E-4,-1.6434155E-2,1.3290649E-2,-1.0979954E-4],"categories":[],"categories_nodes":[],"categories_segments":[],"categories_sizes":[],"default_left":[0,0,0,0,0,0,0],"id":38,"left_children":[1,3,5,-1,-1,-1,-1],"loss_changes":[7.608254E0,9.328256E0,2.9505458E0,0E0,0E0,0E0,0E0],"parents":[2147483647,0,0,1,1,2,2],"right_children":[2,4,6,-1,-1,-1,-1],"split_conditions":[2.437535E-1,5.0026047E1,-7.894E-1,-1.0627074E-4,-1.6434155E-2,1.3290649E-2,-1.0979954E-4],"split_indices":[13,1,15,0,0,0,0],"split_type":[0,0,0,0,0,0,0],"sum_hessian":[7.67E2,7.22E2,4.5E1,7.04E2,1.8E1,3.1E1,1.4E1],"tree_param":{"num_deleted":"0","num_feature":"18","num_nodes":"7","size_leaf_vector":"1"}},{"base_weights":[3.164594E-4,1.4295796E-1,-6.692006E-2,2.2547774E-3,1.3156409E-2,-1.5280646E-2,-1.1571264E-3],"categories":[],"categories_nodes":[],"categories_segments":[],"categories_sizes":[],"default_left":[0,0,0,0,0,0,0],"id":39,"left_children":[1,3,5,-1,-1,-1,-1],"loss_changes":[7.367192E0,4.760048E0,5.674395E0,0E0,0E0,0E0,0E0],"parents":[2147483647,0,0,1,1,2,2],"right_children":[2,4,6,-1,-1,-1,-1],"split_conditions":[-1.54E-1,2.437535E-1,-6.325E-1,2.2547774E-3,1.3156409E-2,-1.5280646E-2,-1.1571264E-3],"split_indices":[9,13,0,0,0,0,0],"split_type":[0,0,0,0,0,0,0],"sum_hessian":[7.6E2,2.42E2,5.18E2,2.18E2,2.4E1,1.4E1,5.04E2],"tree_param":{"num_deleted":"0","num_feature":"18","num_nodes":"7","size_leaf_vector":"1"}},{"base_weights":[-2.8298995E-3,9.513312E-2,-9.461174E-2,1.5447299E-3,1.1362392E-2,-1.5818013E-3,-1.2911552E-2],"categories":[],"categories_nodes":[],"categories_segments":[],"categories_sizes":[],"default_left":[0,0,0,0,0,0,0],"id":40,"left_children":[1,3,5,-1,-1,-1,-1],"loss_changes":[6.9337916E0,4.3242006E0,5.080679E0,0E0,0E0,0E0,0E0],"parents":[2147483647,0,0,1,1,2,2],"right_children":[2,4,6,-1,-1,-1,-1],"split_conditions":[-6.06E-2,2.5418388E1,1.2121E0,1.5447299E-3,1.1362392E-2,-1.5818013E-3,-1.2911552E-2],"split_indices":[9,1,10,0,0,0,0],"split_type":[0,0,0,0,0,0,0],"sum_hessian":[7.63E2,3.69E2,3.94E2,3.43E2,2.6E1,3.72E2,2.2E1],"tree_param":{"num_deleted":"0","num_feature":"18","num_nodes":"7","size_leaf_vector":"1"}},{"base_weights":[3.841701E-3,3.070197E-1,-2.558122E-2,2.6787585E-3,1.3094301E-2,8.615755E-4,-4.055638E-3],"categories":[],"categories_nodes":[],"categories_segments":[],"categories_sizes":[],"default_left":[0,0,0,0,0,0,0],"id":41,"left_children":[1,3,5,-1,-1,-1,-1],"loss_changes":[6.8658447E0,2.773971E0,5.892024E0,0E0,0E0,0E0,0E0],"parents":[2147483647,0,0,1,1,2,2],"right_children":[2,4,6,-1,-1,-1,-1],"split_conditions":[-8.573E-1,2.1205306E-1,1.252E-1,2.6787585E-3,1.3094301E-2,8.615755E-4,-4.055638E-3],"split_indices":[17,13,11,0,0,0,0],"split_type":[0,0,0,0,0,0,0],"sum_hessian":[7.62E2,6.4E1,6.98E2,3.7E1,2.7E1,4.88E2,2.1E2],"tree_param":{"num_deleted":"0","num_feature":"18","num_nodes":"7","size_leaf_vector":"1"}},{"base_weights":[-6.465279E-4,9.9391095E-2,-9.5092796E-2,1.4103821E-3,1.2059826E-2,-1.6339961E-2,-1.7000181E-3],"categories":[],"categories_nodes":[],"categories_segments":[],"categories_sizes":[],"default_left":[0,0,0,0,0,0,0],"id":42,"left_children":[1,3,5,-1,-1,-1,-1],"loss_changes":[7.238913E0,6.0063E0,5.6905894E0,0E0,0E0,0E0,0E0],"parents":[2147483647,0,0,1,1,2,2],"right_children":[2,4,6,-1,-1,-1,-1],"split_conditions":[-6.06E-2,2.2115059E-1,-6.325E-1,1.4103821E-3,1.2059826E-2,-1.6339961E-2,-1.7000181E-3],"split_indices":[9,13,0,0,0,0,0],"split_type":[0,0,0,0,0,0,0],"sum_hessian":[7.58E2,3.68E2,3.9E2,3.36E2,3.2E1,1.3E1,3.77E2],"tree_param":{"num_deleted":"0","num_feature":"18","num_nodes":"7","size_leaf_vector":"1"}},{"base_weights":[-5.9747766E-5,8.258558E-2,-1.006973E-1,1.4304477E-2,1.5143252E-3,-1.9520553E-3,-1.4742548E-2],"categories":[],"categories_nodes":[],"categories_segments":[],"categories_sizes":[],"default_left":[0,0,0,0,0,0,0],"id":43,"left_children":[1,3,5,-1,-1,-1,-1],"loss_changes":[6.43893E0,4.357865E0,3.5743604E0,0E0,0E0,0E0,0E0],"parents":[2147483647,0,0,1,1,2,2],"right_children":[2,4,6,-1,-1,-1,-1],"split_conditions":[1.07E-2,-7.4843335E-1,1.5982E0,1.4304477E-2,1.5143252E-3,-1.9520553E-3,-1.4742548E-2],"split_indices":[11,16,10,0,0,0,0],"split_type":[0,0,0,0,0,0,0],"sum_hessian":[7.66E2,4.21E2,3.45E2,1.3E1,4.08E2,3.35E2,1E1],"tree_param":{"num_deleted":"0","num_feature":"18","num_nodes":"7","size_leaf_vector":"1"}},{"base_weights":[4.170695E-5,2.717449E-1,-3.100602E-2,2.464998E-3,1.2336916E-2,-3.9175974E-4,-1.3915635E-2],"categories":[],"categories_nodes":[],"categories_segments":[],"categories_sizes":[],"default_left":[0,0,0,0,0,0,0],"id":44,"left_children":[1,3,5,-1,-1,-1,-1],"loss_changes":[6.505359E0,2.886229E0,5.5438204E0,0E0,0E0,0E0,0E0],"parents":[2147483647,0,0,1,1,2,2],"right_children":[2,4,6,-1,-1,-1,-1],"split_conditions":[-7.947E-1,2.1205306E-1,6.325E-1,2.464998E-3,1.2336916E-2,-3.9175974E-4,-1.3915635E-2],"split_indices":[17,13,8,0,0,0,0],"split_type":[0,0,0,0,0,0,0],"sum_hessian":[7.63E2,7.5E1,6.88E2,4.6E1,2.9E1,6.73E2,1.5E1],"tree_param":{"num_deleted":"0","num_feature":"18","num_nodes":"7","size_leaf_vector":"1"}},{"base_weights":[2.5560365E-3,-2.0716554E-2,3.3601823E-1,-4.3141885E-5,-1.5295438E-2,1.1774082E-2,-4.7305785E-4],"categories":[],"categories_nodes":[],"categories_segments":[],"categories_sizes":[],"default_left":[0,0,0,0,0,0,0],"id":45,"left_children":[1,3,5,-1,-1,-1,-1],"loss_changes":[5.958132E0,8.137303E0,2.5265179E0,0E0,0E0,0E0,0E0],"parents":[2147483647,0,0,1,1,2,2],"right_children":[2,4,6,-1,-1,-1,-1],"split_conditions":[2.437535E-1,5.0026047E1,-6.43E-1,-4.3141885E-5,-1.5295438E-2,1.1774082E-2,-4.7305785E-4],"split_indices":[13,1,15,0,0,0,0],"split_type":[0,0,0,0,0,0,0],"sum_hessian":[7.6E2,7.14E2,4.6E1,6.96E2,1.8E1,3.2E1,1.4E1],"tree_param":{"num_deleted":"0","num_feature":"18","num_nodes":"7","size_leaf_vector":"1"}},{"base_weights":[1.7359453E-3,6.90121E-2,-1.159479E-1,1.369816E-2,1.2677439E-3,-2.2512593E-3,-1.4896251E-2],"categories":[],"categories_nodes":[],"categories_segments":[],"categories_sizes":[],"default_left":[0,0,0,0,0,0,0],"id":46,"left_children":[1,3,5,-1,-1,-1,-1],"loss_changes":[6.161353E0,4.147024E0,3.209069E0,0E0,0E0,0E0,0E0],"parents":[2147483647,0,0,1,1,2,2],"right_children":[2,4,6,-1,-1,-1,-1],"split_conditions":[8.62E-2,-7.4843335E-1,1.5982E0,1.369816E-2,1.2677439E-3,-2.2512593E-3,-1.4896251E-2],"split_indices":[11,16,10,0,0,0,0],"split_type":[0,0,0,0,0,0,0],"sum_hessian":[7.7E2,4.91E2,2.79E2,1.3E1,4.78E2,2.7E2,9E0],"tree_param":{"num_deleted":"0","num_feature":"18","num_nodes":"7","size_leaf_vector":"1"}},{"base_weights":[1.010936E-4,1.8836065E-1,-4.0281452E-2,1.1617921E-2,3.7385407E-3,-5.52432E-4,-9.909563E-3],"categories":[],"categories_nodes":[],"categories_segments":[],"categories_sizes":[],"default_left":[0,0,0,0,0,0,0],"id":47,"left_children":[1,3,5,-1,-1,-1,-1],"loss_changes":[5.900685E0,1.1456952E0,4.0966644E0,0E0,0E0,0E0,0E0],"parents":[2147483647,0,0,1,1,2,2],"right_children":[2,4,6,-1,-1,-1,-1],"split_conditions":[-2.862E-1,-7.4843335E-1,1.2121E0,1.1617921E-2,3.7385407E-3,-5.52432E-4,-9.909563E-3],"split_indices":[11,16,10,0,0,0,0],"split_type":[0,0,0,0,0,0,0],"sum_hessian":[7.68E2,1.33E2,6.35E2,1E1,1.23E2,6.09E2,2.6E1],"tree_param":{"num_deleted":"0","num_feature":"18","num_nodes":"7","size_leaf_vector":"1"}},{"base_weights":[5.4994296E-5,2.5438806E-1,-2.8723605E-2,2.5432142E-3,1.1078849E-2,7.321617E-4,-4.0898984E-3],"categories":[],"categories_nodes":[],"categories_segments":[],"categories_sizes":[],"default_left":[0,0,0,0,0,0,0],"id":48,"left_children":[1,3,5,-1,-1,-1,-1],"loss_changes":[5.6224456E0,2.1019077E0,5.5181603E0,0E0,0E0,0E0,0E0],"parents":[2147483647,0,0,1,1,2,2],"right_children":[2,4,6,-1,-1,-1,-1],"split_conditions":[-7.947E-1,2.1205306E-1,1.069E-1,2.5432142E-3,1.1078849E-2,7.321617E-4,-4.0898984E-3],"split_indices":[17,13,12,0,0,0,0],"split_type":[0,0,0,0,0,0,0],"sum_hessian":[7.6E2,7.4E1,6.86E2,4.5E1,2.9E1,4.83E2,2.03E2],"tree_param":{"num_deleted":"0","num_feature":"18","num_nodes":"7","size_leaf_vector":"1"}},{"base_weights":[-1.5345524E-4,7.730955E-2,-9.438327E-2,1.38743445E-2,1.4599747E-3,-1.8378275E-3,-1.3691964E-2],"categories":[],"categories_nodes":[],"categories_segments":[],"categories_sizes":[],"default_left":[0,0,0,0,0,0,0],"id":49,"left_children":[1,3,5,-1,-1,-1,-1],"loss_changes":[5.680096E0,3.6420274E0,3.0701003E0,0E0,0E0,0E0,0E0],"parents":[2147483647,0,0,1,1,2,2],"right_children":[2,4,6,-1,-1,-1,-1],"split_conditions":[1.07E-2,-1.0384E0,1.5982E0,1.38743445E-2,1.4599747E-3,-1.8378275E-3,-1.3691964E-2],"split_indices":[11,9,10,0,0,0,0],"split_type":[0,0,0,0,0,0,0],"sum_hessian":[7.7E2,4.23E2,3.47E2,1.1E1,4.12E2,3.37E2,1E1],"tree_param":{"num_deleted":"0","num_feature":"18","num_nodes":"7","size_leaf_vector":"1"}},{"base_weights":[-4.6714125E-4,-2.2877628E-2,3.1766137E-1,-1.035916E-4,-1.598296E-2,1.0846826E-2,-6.833227E-4],"categories":[],"categories_nodes":[],"categories_segments":[],"categories_sizes":[],"default_left":[0,0,0,0,0,0,0],"id":50,"left_children":[1,3,5,-1,-1,-1,-1],"loss_changes":[5.5341916E0,8.43492E0,2.1806588E0,0E0,0E0,0E0,0E0],"parents":[2147483647,0,0,1,1,2,2],"right_children":[2,4,6,-1,-1,-1,-1],"split_conditions":[2.437535E-1,5.0026047E1,-5.935E-1,-1.035916E-4,-1.598296E-2,1.0846826E-2,-6.833227E-4],"split_indices":[13,1,15,0,0,0,0],"split_type":[0,0,0,0,0,0,0],"sum_hessian":[7.68E2,7.21E2,4.7E1,7.04E2,1.7E1,3.4E1,1.3E1],"tree_param":{"num_deleted":"0","num_feature":"18","num_nodes":"7","size_leaf_vector":"1"}},{"base_weights":[-5.308457E-4,8.654308E-2,-8.156585E-2,1.3789056E-3,1.1037369E-2,-1.3665085E-3,-1.1240329E-2],"categories":[],"categories_nodes":[],"categories_segments":[],"categories_sizes":[],"default_left":[0,0,0,0,0,0,0],"id":51,"left_children":[1,3,5,-1,-1,-1,-1],"loss_changes":[5.504911E0,4.064391E0,3.8633401E0,0E0,0E0,0E0,0E0],"parents":[2147483647,0,0,1,1,2,2],"right_children":[2,4,6,-1,-1,-1,-1],"split_conditions":[-6.06E-2,2.437535E-1,1.2121E0,1.3789056E-3,1.1037369E-2,-1.3665085E-3,-1.1240329E-2],"split_indices":[9,13,10,0,0,0,0],"split_type":[0,0,0,0,0,0,0],"sum_hessian":[7.72E2,3.72E2,4E2,3.47E2,2.5E1,3.78E2,2.2E1],"tree_param":{"num_deleted":"0","num_feature":"18","num_nodes":"7","size_leaf_vector":"1"}},{"base_weights":[1.912443E-3,1.7980565E-1,-3.6198452E-2,1.0853378E-2,3.5949955E-3,-6.3234183E-4,-1.4354419E-2],"categories":[],"categories_nodes":[],"categories_segments":[],"categories_sizes":[],"default_left":[0,0,0,0,0,0,0],"id":52,"left_children":[1,3,5,-1,-1,-1,-1],"loss_changes":[5.267841E0,9.634056E-1,3.6434453E0,0E0,0E0,0E0,0E0],"parents":[2147483647,0,0,1,1,2,2],"right_children":[2,4,6,-1,-1,-1,-1],"split_conditions":[-2.862E-1,-7.4843335E-1,7.859E-1,1.0853378E-2,3.5949955E-3,-6.3234183E-4,-1.4354419E-2],"split_indices":[11,16,8,0,0,0,0],"split_type":[0,0,0,0,0,0,0],"sum_hessian":[7.69E2,1.33E2,6.36E2,1E1,1.23E2,6.28E2,8E0],"tree_param":{"num_deleted":"0","num_feature":"18","num_nodes":"7","size_leaf_vector":"1"}},{"base_weights":[-7.2673615E-4,6.1647497E-2,-1.0980214E-1,1.2454573E-2,1.1247242E-3,-2.1529482E-3,-1.36664575E-2],"categories":[],"categories_nodes":[],"categories_segments":[],"categories_sizes":[],"default_left":[0,0,0,0,0,0,0],"id":53,"left_children":[1,3,5,-1,-1,-1,-1],"loss_changes":[5.2941265E0,3.445825E0,2.6567965E0,0E0,0E0,0E0,0E0],"parents":[2147483647,0,0,1,1,2,2],"right_children":[2,4,6,-1,-1,-1,-1],"split_conditions":[8.62E-2,-7.4843335E-1,1.5982E0,1.2454573E-2,1.1247242E-3,-2.1529482E-3,-1.36664575E-2],"split_indices":[11,16,10,0,0,0,0],"split_type":[0,0,0,0,0,0,0],"sum_hessian":[7.7E2,4.91E2,2.79E2,1.3E1,4.78E2,2.7E2,9E0],"tree_param":{"num_deleted":"0","num_feature":"18","num_nodes":"7","size_leaf_vector":"1"}},{"base_weights":[-1.3063278E-4,1.2206655E-1,-5.6807946E-2,1.7429643E-3,8.947569E-3,-1.2653442E-2,-9.952155E-4],"categories":[],"categories_nodes":[],"categories_segments":[],"categories_sizes":[],"default_left":[0,0,0,0,0,0,0],"id":54,"left_children":[1,3,5,-1,-1,-1,-1],"loss_changes":[5.313298E0,2.9021559E0,3.866138E0,0E0,0E0,0E0,0E0],"parents":[2147483647,0,0,1,1,2,2],"right_children":[2,4,6,-1,-1,-1,-1],"split_conditions":[-1.601E-1,2.0834754E-1,-6.325E-1,1.7429643E-3,8.947569E-3,-1.2653442E-2,-9.952155E-4],"split_indices":[9,13,0,0,0,0,0],"split_type":[0,0,0,0,0,0,0],"sum_hessian":[7.59E2,2.39E2,5.2E2,2.01E2,3.8E1,1.4E1,5.06E2],"tree_param":{"num_deleted":"0","num_feature":"18","num_nodes":"7","size_leaf_vector":"1"}},{"base_weights":[6.855046E-4,7.415867E-2,-8.7863415E-2,1.20830145E-2,1.38923E-3,1.1007205E-3,-3.6079243E-3],"categories":[],"categories_nodes":[],"categories_segments":[],"categories_sizes":[],"default_left":[0,0,0,0,0,0,0],"id":55,"left_children":[1,3,5,-1,-1,-1,-1],"loss_changes":[5.0367584E0,3.0428336E0,2.7211878E0,0E0,0E0,0E0,0E0],"parents":[2147483647,0,0,1,1,2,2],"right_children":[2,4,6,-1,-1,-1,-1],"split_conditions":[1.07E-2,-7.4843335E-1,-5.66E-2,1.20830145E-2,1.38923E-3,1.1007205E-3,-3.6079243E-3],"split_indices":[11,16,9,0,0,0,0],"split_type":[0,0,0,0,0,0,0],"sum_hessian":[7.66E2,4.19E2,3.47E2,1.3E1,4.06E2,1.06E2,2.41E2],"tree_param":{"num_deleted":"0","num_feature":"18","num_nodes":"7","size_leaf_vector":"1"}},{"base_weights":[2.98526E-3,1.1974294E-1,-5.124088E-2,1.7524587E-3,8.655523E-3,-4.6321983E-4,-5.830504E-3],"categories":[],"categories_nodes":[],"categories_segments":[],"categories_sizes":[],"default_left":[0,0,0,0,0,0,0],"id":56,"left_children":[1,3,5,-1,-1,-1,-1],"loss_changes":[4.913373E0,2.6683388E0,3.161258E0,0E0,0E0,0E0,0E0],"parents":[2147483647,0,0,1,1,2,2],"right_children":[2,4,6,-1,-1,-1,-1],"split_conditions":[-1.601E-1,2.0834754E-1,2.933E-1,1.7524587E-3,8.655523E-3,-4.6321983E-4,-5.830504E-3],"split_indices":[9,13,12,0,0,0,0],"split_type":[0,0,0,0,0,0,0],"sum_hessian":[7.68E2,2.42E2,5.26E2,2.04E2,3.8E1,4.51E2,7.5E1],"tree_param":{"num_deleted":"0","num_feature":"18","num_nodes":"7","size_leaf_vector":"1"}},{"base_weights":[-6.523353E-5,-2.083099E-2,2.9549912E-1,2.5778252E-4,-7.5545385E-3,1.1187736E-2,1.4685777E-3],"categories":[],"categories_nodes":[],"categories_segments":[],"categories_sizes":[],"default_left":[0,0,0,0,0,0,0],"id":57,"left_children":[1,3,5,-1,-1,-1,-1],"loss_changes":[4.7761745E0,6.4790716E0,1.7813702E0,0E0,0E0,0E0,0E0],"parents":[2147483647,0,0,1,1,2,2],"right_children":[2,4,6,-1,-1,-1,-1],"split_conditions":[2.437535E-1,2.992E-1,6.5E-1,2.5778252E-4,-7.5545385E-3,1.1187736E-2,1.4685777E-3],"split_indices":[13,12,3,0,0,0,0],"split_type":[0,0,0,0,0,0,0],"sum_hessian":[7.7E2,7.23E2,4.7E1,6.55E2,6.8E1,2.6E1,2.1E1],"tree_param":{"num_deleted":"0","num_feature":"18","num_nodes":"7","size_leaf_vector":"1"}},{"base_weights":[4.4811485E-4,-1.9926034E-2,2.8920126E-1,-8.012578E-5,-1.3599337E-2,9.8195E-3,-4.9831416E-4],"categories":[],"categories_nodes":[],"categories_segments":[],"categories_sizes":[],"default_left":[0,0,0,0,0,0,0],"id":58,"left_children":[1,3,5,-1,-1,-1,-1],"loss_changes":[4.5599036E0,6.394537E0,1.7354827E0,0E0,0E0,0E0,0E0],"parents":[2147483647,0,0,1,1,2,2],"right_children":[2,4,6,-1,-1,-1,-1],"split_conditions":[2.437535E-1,5.0026047E1,-5.935E-1,-8.012578E-5,-1.3599337E-2,9.8195E-3,-4.9831416E-4],"split_indices":[13,1,15,0,0,0,0],"split_type":[0,0,0,0,0,0,0],"sum_hessian":[7.67E2,7.2E2,4.7E1,7.02E2,1.8E1,3.4E1,1.3E1],"tree_param":{"num_deleted":"0","num_feature":"18","num_nodes":"7","size_leaf_vector":"1"}},{"base_weights":[1.7603856E-4,1.03656724E-1,-5.7832394E-2,1.0618735E-2,2.037909E-3,-1.1047723E-3,-1.226078E-2],"categories":[],"categories_nodes":[],"categories_segments":[],"categories_sizes":[],"default_left":[0,0,0,0,0,0,0],"id":59,"left_children":[1,3,5,-1,-1,-1,-1],"loss_changes":[4.647111E0,1.7818177E0,2.7703695E0,0E0,0E0,0E0,0E0],"parents":[2147483647,0,0,1,1,2,2],"right_children":[2,4,6,-1,-1,-1,-1],"split_conditions":[-1.336E-1,-7.4843335E-1,1.5982E0,1.0618735E-2,2.037909E-3,-1.1047723E-3,-1.226078E-2],"split_indices":[11,16,10,0,0,0,0],"split_type":[0,0,0,0,0,0,0],"sum_hessian":[7.66E2,2.74E2,4.92E2,1.2E1,2.62E2,4.82E2,1E1],"tree_param":{"num_deleted":"0","num_feature":"18","num_nodes":"7","size_leaf_vector":"1"}},{"base_weights":[2.953665E-3,4.9374007E-2,-1.19334936E-1,1.2661398E-2,9.199327E-4,-4.207561E-3,3.470289E-3],"categories":[],"categories_nodes":[],"categories_segments":[],"categories_sizes":[],"default_left":[0,0,0,0,0,0,0],"id":60,"left_children":[1,3,5,-1,-1,-1,-1],"loss_changes":[4.395587E0,3.0841732E0,2.9054074E0,0E0,0E0,0E0,0E0],"parents":[2147483647,0,0,1,1,2,2],"right_children":[2,4,6,-1,-1,-1,-1],"split_conditions":[1.485E-1,-1.0384E0,2.1193622E-1,1.2661398E-2,9.199327E-4,-4.207561E-3,3.470289E-3],"split_indices":[11,9,13,0,0,0,0],"split_type":[0,0,0,0,0,0,0],"sum_hessian":[7.66E2,5.57E2,2.09E2,1E1,5.47E2,1.76E2,3.3E1],"tree_param":{"num_deleted":"0","num_feature":"18","num_nodes":"7","size_leaf_vector":"1"}},{"base_weights":[5.943081E-4,2.1866682E-1,-2.481166E-2,1.2488436E-2,3.5702388E-3,6.4553233E-4,-3.60015E-3],"categories":[],"categories_nodes":[],"categories_segments":[],"categories_sizes":[],"default_left":[0,0,0,0,0,0,0],"id":61,"left_children":[1,3,5,-1,-1,-1,-1],"loss_changes":[4.305313E0,1.4274197E0,4.2935276E0,0E0,0E0,0E0,0E0],"parents":[2147483647,0,0,1,1,2,2],"right_children":[2,4,6,-1,-1,-1,-1],"split_conditions":[-7.821E-1,-7.4843335E-1,1.069E-1,1.2488436E-2,3.5702388E-3,6.4553233E-4,-3.60015E-3],"split_indices":[17,16,12,0,0,0,0],"split_type":[0,0,0,0,0,0,0],"sum_hessian":[7.69E2,7.7E1,6.92E2,1.1E1,6.6E1,4.89E2,2.03E2],"tree_param":{"num_deleted":"0","num_feature":"18","num_nodes":"7","size_leaf_vector":"1"}},{"base_weights":[2.865403E-4,7.418641E-2,-6.774947E-2,1.0259743E-3,7.314289E-3,-1.0805263E-3,-1.0111978E-2],"categories":[],"categories_nodes":[],"categories_segments":[],"categories_sizes":[],"default_left":[0,0,0,0,0,0,0],"id":62,"left_children":[1,3,5,-1,-1,-1,-1],"loss_changes":[3.8923986E0,2.6385546E0,3.235673E0,0E0,0E0,0E0,0E0],"parents":[2147483647,0,0,1,1,2,2],"right_children":[2,4,6,-1,-1,-1,-1],"split_conditions":[-6.06E-2,2.0806555E-1,1.2121E0,1.0259743E-3,7.314289E-3,-1.0805263E-3,-1.0111978E-2],"split_indices":[9,13,10,0,0,0,0],"split_type":[0,0,0,0,0,0,0],"sum_hessian":[7.66E2,3.67E2,3.99E2,3.24E2,4.3E1,3.77E2,2.2E1],"tree_param":{"num_deleted":"0","num_feature":"18","num_nodes":"7","size_leaf_vector":"1"}},{"base_weights":[2.67123E-3,1.6543667E-1,-3.185791E-2,3.3644475E-3,9.370677E-3,-5.473403E-4,-1.3053469E-2],"categories":[],"categories_nodes":[],"categories_segments":[],"categories_sizes":[],"default_left":[0,0,0,0,0,0,0],"id":63,"left_children":[1,3,5,-1,-1,-1,-1],"loss_changes":[4.338277E0,6.377857E-1,3.0263712E0,0E0,0E0,0E0,0E0],"parents":[2147483647,0,0,1,1,2,2],"right_children":[2,4,6,-1,-1,-1,-1],"split_conditions":[-2.862E-1,3.4840643E-1,7.859E-1,3.3644475E-3,9.370677E-3,-5.473403E-4,-1.3053469E-2],"split_indices":[11,14,8,0,0,0,0],"split_type":[0,0,0,0,0,0,0],"sum_hessian":[7.64E2,1.31E2,6.33E2,1.21E2,1E1,6.25E2,8E0],"tree_param":{"num_deleted":"0","num_feature":"18","num_nodes":"7","size_leaf_vector":"1"}},{"base_weights":[-2.2291715E-5,-1.9198015E-2,2.7028003E-1,1.3326573E-4,-8.6214775E-3,9.172503E-3,-4.5557003E-4],"categories":[],"categories_nodes":[],"categories_segments":[],"categories_sizes":[],"default_left":[0,0,0,0,0,0,0],"id":64,"left_children":[1,3,5,-1,-1,-1,-1],"loss_changes":[3.9971771E0,5.837924E0,1.5103645E0,0E0,0E0,0E0,0E0],"parents":[2147483647,0,0,1,1,2,2],"right_children":[2,4,6,-1,-1,-1,-1],"split_conditions":[2.437535E-1,3.643E-1,-5.935E-1,1.3326573E-4,-8.6214775E-3,9.172503E-3,-4.5557003E-4],"split_indices":[13,12,15,0,0,0,0],"split_type":[0,0,0,0,0,0,0],"sum_hessian":[7.63E2,7.16E2,4.7E1,6.7E2,4.6E1,3.4E1,1.3E1],"tree_param":{"num_deleted":"0","num_feature":"18","num_nodes":"7","size_leaf_vector":"1"}},{"base_weights":[-9.163145E-5,1.5446457E-1,-3.3243544E-2,3.1121864E-3,9.108498E-3,-5.8789516E-4,-1.2788122E-2],"categories":[],"categories_nodes":[],"categories_segments":[],"categories_sizes":[],"default_left":[0,0,0,0,0,0,0],"id":65,"left_children":[1,3,5,-1,-1,-1,-1],"loss_changes":[3.9770048E0,6.5038466E-1,2.8797383E0,0E0,0E0,0E0,0E0],"parents":[2147483647,0,0,1,1,2,2],"right_children":[2,4,6,-1,-1,-1,-1],"split_conditions":[-2.862E-1,3.4840643E-1,7.859E-1,3.1121864E-3,9.108498E-3,-5.8789516E-4,-1.2788122E-2],"split_indices":[11,14,8,0,0,0,0],"split_type":[0,0,0,0,0,0,0],"sum_hessian":[7.68E2,1.33E2,6.35E2,1.23E2,1E1,6.27E2,8E0],"tree_param":{"num_deleted":"0","num_feature":"18","num_nodes":"7","size_leaf_vector":"1"}},{"base_weights":[-7.2528503E-4,1.0355512E-1,-4.9300265E-2,1.7826303E-3,9.4075985E-3,-1.2837026E-2,-8.23E-4],"categories":[],"categories_nodes":[],"categories_segments":[],"categories_sizes":[],"default_left":[0,0,0,0,0,0,0],"id":66,"left_children":[1,3,5,-1,-1,-1,-1],"loss_changes":[3.9064555E0,2.0240562E0,3.8900826E0,0E0,0E0,0E0,0E0],"parents":[2147483647,0,0,1,1,2,2],"right_children":[2,4,6,-1,-1,-1,-1],"split_conditions":[-1.601E-1,3.5001123E-1,-6.325E-1,1.7826303E-3,9.4075985E-3,-1.2837026E-2,-8.23E-4],"split_indices":[9,14,0,0,0,0,0],"split_type":[0,0,0,0,0,0,0],"sum_hessian":[7.63E2,2.41E2,5.22E2,2.21E2,2E1,1.3E1,5.09E2],"tree_param":{"num_deleted":"0","num_feature":"18","num_nodes":"7","size_leaf_vector":"1"}},{"base_weights":[8.376112E-4,1.549187E-1,-3.1444516E-2,2.5088643E-3,6.217344E-3,-4.1464696E-4,-8.085814E-3],"categories":[],"categories_nodes":[],"categories_segments":[],"categories_sizes":[],"default_left":[0,0,0,0,0,0,0],"id":67,"left_children":[1,3,5,-1,-1,-1,-1],"loss_changes":[3.850347E0,5.8751154E-1,2.754015E0,0E0,0E0,0E0,0E0],"parents":[2147483647,0,0,1,1,2,2],"right_children":[2,4,6,-1,-1,-1,-1],"split_conditions":[-2.862E-1,3E-1,1.2121E0,2.5088643E-3,6.217344E-3,-4.1464696E-4,-8.085814E-3],"split_indices":[11,1,10,0,0,0,0],"split_type":[0,0,0,0,0,0,0],"sum_hessian":[7.66E2,1.3E2,6.36E2,8.9E1,4.1E1,6.1E2,2.6E1],"tree_param":{"num_deleted":"0","num_feature":"18","num_nodes":"7","size_leaf_vector":"1"}},{"base_weights":[1.3950275E-3,4.0198077E-2,-1.2150867E-1,1.0278353E-2,7.105253E-4,4.4309036E-3,-3.8655705E-3],"categories":[],"categories_nodes":[],"categories_segments":[],"categories_sizes":[],"default_left":[0,0,0,0,0,0,0],"id":68,"left_children":[1,3,5,-1,-1,-1,-1],"loss_changes":[3.6782045E0,2.4752893E0,2.0483272E0,0E0,0E0,0E0,0E0],"parents":[2147483647,0,0,1,1,2,2],"right_children":[2,4,6,-1,-1,-1,-1],"split_conditions":[1.531E-1,-7.4843335E-1,-8.828E-1,1.0278353E-2,7.105253E-4,4.4309036E-3,-3.8655705E-3],"split_indices":[12,16,15,0,0,0,0],"split_type":[0,0,0,0,0,0,0],"sum_hessian":[7.63E2,5.82E2,1.81E2,1.3E1,5.69E2,1.7E1,1.64E2],"tree_param":{"num_deleted":"0","num_feature":"18","num_nodes":"7","size_leaf_vector":"1"}},{"base_weights":[3.1930723E-3,9.5949836E-2,-4.845486E-2,9.789667E-3,1.9445248E-3,-1.6407676E-3,4.9910154E-3],"categories":[],"categories_nodes":[],"categories_segments":[],"categories_sizes":[],"default_left":[0,0,0,0,0,0,0],"id":69,"left_children":[1,3,5,-1,-1,-1,-1],"loss_changes":[3.6986475E0,1.3083262E0,2.2733011E0,0E0,0E0,0E0,0E0],"parents":[2147483647,0,0,1,1,2,2],"right_children":[2,4,6,-1,-1,-1,-1],"split_conditions":[-1.336E-1,-1.0384E0,2.437535E-1,9.789667E-3,1.9445248E-3,-1.6407676E-3,4.9910154E-3],"split_indices":[11,9,13,0,0,0,0],"split_type":[0,0,0,0,0,0,0],"sum_hessian":[7.64E2,2.72E2,4.92E2,1E1,2.62E2,4.62E2,3E1],"tree_param":{"num_deleted":"0","num_feature":"18","num_nodes":"7","size_leaf_vector":"1"}},{"base_weights":[1.0169045E-3,-1.6913895E-2,2.5333685E-1,2.500249E-4,-6.5260683E-3,9.802557E-3,1.0058557E-3],"categories":[],"categories_nodes":[],"categories_segments":[],"categories_sizes":[],"default_left":[0,0,0,0,0,0,0],"id":70,"left_children":[1,3,5,-1,-1,-1,-1],"loss_changes":[3.4834962E0,4.8083744E0,1.487076E0,0E0,0E0,0E0,0E0],"parents":[2147483647,0,0,1,1,2,2],"right_children":[2,4,6,-1,-1,-1,-1],"split_conditions":[2.437535E-1,2.992E-1,6.5E-1,2.500249E-4,-6.5260683E-3,9.802557E-3,1.0058557E-3],"split_indices":[13,12,3,0,0,0,0],"split_type":[0,0,0,0,0,0,0],"sum_hessian":[7.62E2,7.15E2,4.7E1,6.48E2,6.7E1,2.6E1,2.1E1],"tree_param":{"num_deleted":"0","num_feature":"18","num_nodes":"7","size_leaf_vector":"1"}},{"base_weights":[-9.235129E-4,3.5662977E-3,-3.218681E-2,-4.4098994E-4,-7.891549E-3],"categories":[],"categories_nodes":[],"categories_segments":[],"categories_sizes":[],"default_left":[0,0,0,0,0],"id":71,"left_children":[1,-1,3,-1,-1],"loss_changes":[3.5075638E0,0E0,2.5966754E0,0E0,0E0],"parents":[2147483647,0,0,2,2],"right_children":[2,-1,4,-1,-1],"split_conditions":[-2.862E-1,3.5662977E-3,1.2121E0,-4.4098994E-4,-7.891549E-3],"split_indices":[11,0,10,0,0],"split_type":[0,0,0,0,0],"sum_hessian":[7.65E2,1.33E2,6.32E2,6.06E2,2.6E1],"tree_param":{"num_deleted":"0","num_feature":"18","num_nodes":"5","size_leaf_vector":"1"}},{"base_weights":[1.7088668E-4,5.0679505E-2,-8.953174E-2,9.785728E-3,9.387128E-4,-3.1240836E-3,3.3193168E-3],"categories":[],"categories_nodes":[],"categories_segments":[],"categories_sizes":[],"default_left":[0,0,0,0,0,0,0],"id":72,"left_children":[1,3,5,-1,-1,-1,-1],"loss_changes":[3.4849427E0,2.099591E0,2.3479173E0,0E0,0E0,0E0,0E0],"parents":[2147483647,0,0,1,1,2,2],"right_children":[2,4,6,-1,-1,-1,-1],"split_conditions":[8.62E-2,-7.4843335E-1,2.1193622E-1,9.785728E-3,9.387128E-4,-3.1240836E-3,3.3193168E-3],"split_indices":[11,16,13,0,0,0,0],"split_type":[0,0,0,0,0,0,0],"sum_hessian":[7.61E2,4.88E2,2.73E2,1.3E1,4.75E2,2.36E2,3.7E1],"tree_param":{"num_deleted":"0","num_feature":"18","num_nodes":"7","size_leaf_vector":"1"}},{"base_weights":[3.844684E-3,3.740794E-3,-2.719796E-2,-4.516129E-4,-1.1959653E-2],"categories":[],"categories_nodes":[],"categories_segments":[],"categories_sizes":[],"default_left":[0,0,0,0,0],"id":73,"left_children":[1,-1,3,-1,-1],"loss_changes":[3.5262117E0,0E0,2.563076E0,0E0,0E0],"parents":[2147483647,0,0,2,2],"right_children":[2,-1,4,-1,-1],"split_conditions":[-2.862E-1,3.740794E-3,7.859E-1,-4.516129E-4,-1.1959653E-2],"split_indices":[11,0,8,0,0],"split_type":[0,0,0,0,0],"sum_hessian":[7.63E2,1.3E2,6.33E2,6.25E2,8E0],"tree_param":{"num_deleted":"0","num_feature":"18","num_nodes":"5","size_leaf_vector":"1"}},{"base_weights":[2.57706E-3,5.1338337E-2,-8.304083E-2,1.0143929E-2,9.827223E-4,-2.9100168E-3,3.2554308E-3],"categories":[],"categories_nodes":[],"categories_segments":[],"categories_sizes":[],"default_left":[0,0,0,0,0,0,0],"id":74,"left_children":[1,3,5,-1,-1,-1,-1],"loss_changes":[3.2449143E0,1.9957008E0,2.1580129E0,0E0,0E0,0E0,0E0],"parents":[2147483647,0,0,1,1,2,2],"right_children":[2,4,6,-1,-1,-1,-1],"split_conditions":[8.62E-2,-1.0384E0,2.1193622E-1,1.0143929E-2,9.827223E-4,-2.9100168E-3,3.2554308E-3],"split_indices":[11,9,13,0,0,0,0],"split_type":[0,0,0,0,0,0,0],"sum_hessian":[7.69E2,4.91E2,2.78E2,1.1E1,4.8E2,2.41E2,3.7E1],"tree_param":{"num_deleted":"0","num_feature":"18","num_nodes":"7","size_leaf_vector":"1"}},{"base_weights":[-1.5861418E-3,3.369865E-2,-1.1423645E-1,9.684168E-3,6.1322295E-4,-3.919163E-3,4.785832E-3],"categories":[],"categories_nodes":[],"categories_segments":[],"categories_sizes":[],"default_left":[0,0,0,0,0,0,0],"id":75,"left_children":[1,3,5,-1,-1,-1,-1],"loss_changes":[3.0846376E0,1.8444409E0,2.6422648E0,0E0,0E0,0E0,0E0],"parents":[2147483647,0,0,1,1,2,2],"right_children":[2,4,6,-1,-1,-1,-1],"split_conditions":[1.531E-1,-2.2559E0,2.437535E-1,9.684168E-3,6.1322295E-4,-3.919163E-3,4.785832E-3],"split_indices":[12,17,13,0,0,0,0],"split_type":[0,0,0,0,0,0,0],"sum_hessian":[7.68E2,5.87E2,1.81E2,1E1,5.77E2,1.6E2,2.1E1],"tree_param":{"num_deleted":"0","num_feature":"18","num_nodes":"7","size_leaf_vector":"1"}},{"base_weights":[-3.1786968E-3,2.3493225E-2,-1.5125968E-1,9.294831E-3,3.459703E-4,-5.2788584E-3,4.8321844E-3],"categories":[],"categories_nodes":[],"categories_segments":[],"categories_sizes":[],"default_left":[0,0,0,0,0,0,0],"id":76,"left_children":[1,3,5,-1,-1,-1,-1],"loss_changes":[3.0560431E0,2.1757393E0,2.7135322E0,0E0,0E0,0E0,0E0],"parents":[2147483647,0,0,1,1,2,2],"right_children":[2,4,6,-1,-1,-1,-1],"split_conditions":[2.357E-1,-7.4843335E-1,2.437535E-1,9.294831E-3,3.459703E-4,-5.2788584E-3,4.8321844E-3],"split_indices":[12,16,13,0,0,0,0],"split_type":[0,0,0,0,0,0,0],"sum_hessian":[7.66E2,6.52E2,1.14E2,1.3E1,6.39E2,9.8E1,1.6E1],"tree_param":{"num_deleted":"0","num_feature":"18","num_nodes":"7","size_leaf_vector":"1"}},{"base_weights":[8.265253E-4,2.0636141E-1,-1.92881E-2,7.3826145E-3,1.1495606E-3,-1.648422E-4,-9.292249E-3],"categories":[],"categories_nodes":[],"categories_segments":[],"categories_sizes":[],"default_left":[0,0,0,0,0,0,0],"id":77,"left_children":[1,3,5,-1,-1,-1,-1],"loss_changes":[3.204119E0,9.604912E-1,3.1662498E0,0E0,0E0,0E0,0E0],"parents":[2147483647,0,0,1,1,2,2],"right_children":[2,4,6,-1,-1,-1,-1],"split_conditions":[-8.573E-1,-8.742E-1,5.0026047E1,7.3826145E-3,1.1495606E-3,-1.648422E-4,-9.292249E-3],"split_indices":[17,15,1,0,0,0,0],"split_type":[0,0,0,0,0,0,0],"sum_hessian":[7.67E2,6.5E1,7.02E2,3.9E1,2.6E1,6.82E2,2E1],"tree_param":{"num_deleted":"0","num_feature":"18","num_nodes":"7","size_leaf_vector":"1"}},{"base_weights":[4.63898E-4,1.5305287E-2,-2.5072962E-1,3.5592508E-5,6.9621606E-3,-1.3262307E-3,-1.2643477E-2],"categories":[],"categories_nodes":[],"categories_segments":[],"categories_sizes":[],"default_left":[0,0,0,0,0,0,0],"id":78,"left_children":[1,3,5,-1,-1,-1,-1],"loss_changes":[2.8791382E0,2.688991E0,2.099444E0,0E0,0E0,0E0,0E0],"parents":[2147483647,0,0,1,1,2,2],"right_children":[2,4,6,-1,-1,-1,-1],"split_conditions":[4.918E-1,2.437535E-1,5.0026047E1,3.5592508E-5,6.9621606E-3,-1.3262307E-3,-1.2643477E-2],"split_indices":[9,13,1,0,0,0,0],"split_type":[0,0,0,0,0,0,0],"sum_hessian":[7.64E2,7.25E2,3.9E1,6.93E2,3.2E1,2.5E1,1.4E1],"tree_param":{"num_deleted":"0","num_feature":"18","num_nodes":"7","size_leaf_vector":"1"}},{"base_weights":[-3.7113094E-4,9.0301014E-2,-4.255305E-2,1.5584793E-3,8.222121E-3,-6.3392223E-4,-8.459706E-3],"categories":[],"categories_nodes":[],"categories_segments":[],"categories_sizes":[],"default_left":[0,0,0,0,0,0,0],"id":79,"left_children":[1,3,5,-1,-1,-1,-1],"loss_changes":[2.9763544E0,1.5473433E0,2.6559367E0,0E0,0E0,0E0,0E0],"parents":[2147483647,0,0,1,1,2,2],"right_children":[2,4,6,-1,-1,-1,-1],"split_conditions":[-1.601E-1,3.5001123E-1,4.997E-1,1.5584793E-3,8.222121E-3,-6.3392223E-4,-8.459706E-3],"split_indices":[9,14,8,0,0,0,0],"split_type":[0,0,0,0,0,0,0],"sum_hessian":[7.7E2,2.43E2,5.27E2,2.23E2,2E1,5.03E2,2.4E1],"tree_param":{"num_deleted":"0","num_feature":"18","num_nodes":"7","size_leaf_vector":"1"}},{"base_weights":[-1.8695024E-3,1.8780699E-2,-1.8300956E-1,-2.2337807E-4,4.916174E-3,-1.11794565E-2,-1.6635355E-3],"categories":[],"categories_nodes":[],"categories_segments":[],"categories_sizes":[],"default_left":[0,0,0,0,0,0,0],"id":80,"left_children":[1,3,5,-1,-1,-1,-1],"loss_changes":[2.8908594E0,3.4810514E0,2.33782E0,0E0,0E0,0E0,0E0],"parents":[2147483647,0,0,1,1,2,2],"right_children":[2,4,6,-1,-1,-1,-1],"split_conditions":[3.21E-1,1.9410174E-1,-6.837454E1,-2.2337807E-4,4.916174E-3,-1.11794565E-2,-1.6635355E-3],"split_indices":[9,14,7,0,0,0,0],"split_type":[0,0,0,0,0,0,0],"sum_hessian":[7.65E2,6.9E2,7.5E1,6.01E2,8.9E1,1.9E1,5.6E1],"tree_param":{"num_deleted":"0","num_feature":"18","num_nodes":"7","size_leaf_vector":"1"}},{"base_weights":[-1.0854574E-3,1.8378103E-1,-2.1699276E-2,6.5164817E-3,-7.382763E-5,5.7570458E-5,-4.8301145E-3],"categories":[],"categories_nodes":[],"categories_segments":[],"categories_sizes":[],"default_left":[0,0,0,0,0,0,0],"id":81,"left_children":[1,3,5,-1,-1,-1,-1],"loss_changes":[2.9280634E0,1.149904E0,2.8837063E0,0E0,0E0,0E0,0E0],"parents":[2147483647,0,0,1,1,2,2],"right_children":[2,4,6,-1,-1,-1,-1],"split_conditions":[-7.947E-1,-7.69E-1,2.871E-1,6.5164817E-3,-7.382763E-5,5.7570458E-5,-4.8301145E-3],"split_indices":[17,15,12,0,0,0,0],"split_type":[0,0,0,0,0,0,0],"sum_hessian":[7.6E2,7.3E1,6.87E2,5E1,2.3E1,6.07E2,8E1],"tree_param":{"num_deleted":"0","num_feature":"18","num_nodes":"7","size_leaf_vector":"1"}},{"base_weights":[-1.0492075E-3,-1.6707506E-2,2.2510022E-1,-6.402427E-5,-1.1487914E-2,8.6657535E-3,7.548915E-4],"categories":[],"categories_nodes":[],"categories_segments":[],"categories_sizes":[],"default_left":[0,0,0,0,0,0,0],"id":82,"left_children":[1,3,5,-1,-1,-1,-1],"loss_changes":[2.7387767E0,4.5658064E0,1.1766326E0,0E0,0E0,0E0,0E0],"parents":[2147483647,0,0,1,1,2,2],"right_children":[2,4,6,-1,-1,-1,-1],"split_conditions":[2.437535E-1,5.0026047E1,6.5E-1,-6.402427E-5,-1.1487914E-2,8.6657535E-3,7.548915E-4],"split_indices":[13,1,3,0,0,0,0],"split_type":[0,0,0,0,0,0,0],"sum_hessian":[7.65E2,7.19E2,4.6E1,7.01E2,1.8E1,2.6E1,2E1],"tree_param":{"num_deleted":"0","num_feature":"18","num_nodes":"7","size_leaf_vector":"1"}},{"base_weights":[8.3876145E-4,2.6008341E-2,-1.4087357E-1,4.6766456E-3,2.2980805E-4,-5.0569777E-3,4.653212E-3],"categories":[],"categories_nodes":[],"categories_segments":[],"categories_sizes":[],"default_left":[0,0,0,0,0,0,0],"id":83,"left_children":[1,3,5,-1,-1,-1,-1],"loss_changes":[2.7688658E0,1.7893951E0,2.6051552E0,0E0,0E0,0E0,0E0],"parents":[2147483647,0,0,1,1,2,2],"right_children":[2,4,6,-1,-1,-1,-1],"split_conditions":[2.357E-1,-8.573E-1,2.437535E-1,4.6766456E-3,2.2980805E-4,-5.0569777E-3,4.653212E-3],"split_indices":[12,17,13,0,0,0,0],"split_type":[0,0,0,0,0,0,0],"sum_hessian":[7.68E2,6.55E2,1.13E2,5.7E1,5.98E2,9.6E1,1.7E1],"tree_param":{"num_deleted":"0","num_feature":"18","num_nodes":"7","size_leaf_vector":"1"}},{"base_weights":[-1.1144013E-3,1.856166E-2,-1.7424151E-1,-1.8933027E-4,4.668381E-3,-1.0499764E-2,-1.4892257E-3],"categories":[],"categories_nodes":[],"categories_segments":[],"categories_sizes":[],"default_left":[0,0,0,0,0,0,0],"id":84,"left_children":[1,3,5,-1,-1,-1,-1],"loss_changes":[2.639878E0,3.1109824E0,2.1522422E0,0E0,0E0,0E0,0E0],"parents":[2147483647,0,0,1,1,2,2],"right_children":[2,4,6,-1,-1,-1,-1],"split_conditions":[3.21E-1,1.9410174E-1,-4.814E-1,-1.8933027E-4,4.668381E-3,-1.0499764E-2,-1.4892257E-3],"split_indices":[9,14,0,0,0,0,0],"split_type":[0,0,0,0,0,0,0],"sum_hessian":[7.67E2,6.92E2,7.5E1,6.03E2,8.9E1,2E1,5.5E1],"tree_param":{"num_deleted":"0","num_feature":"18","num_nodes":"7","size_leaf_vector":"1"}},{"base_weights":[5.2486772E-5,3.6210857E-2,-9.2571944E-2,8.390116E-3,6.532527E-4,-3.1047799E-3,3.894368E-3],"categories":[],"categories_nodes":[],"categories_segments":[],"categories_sizes":[],"default_left":[0,0,0,0,0,0,0],"id":85,"left_children":[1,3,5,-1,-1,-1,-1],"loss_changes":[2.589469E0,1.6149392E0,1.8683977E0,0E0,0E0,0E0,0E0],"parents":[2147483647,0,0,1,1,2,2],"right_children":[2,4,6,-1,-1,-1,-1],"split_conditions":[1.207E-1,-7.4843335E-1,2.437535E-1,8.390116E-3,6.532527E-4,-3.1047799E-3,3.894368E-3],"split_indices":[12,16,13,0,0,0,0],"split_type":[0,0,0,0,0,0,0],"sum_hessian":[7.65E2,5.52E2,2.13E2,1.3E1,5.39E2,1.9E2,2.3E1],"tree_param":{"num_deleted":"0","num_feature":"18","num_nodes":"7","size_leaf_vector":"1"}},{"base_weights":[9.482079E-4,3.849194E-2,-8.468265E-2,8.2321875E-3,7.069684E-4,-1.5829492E-3,-1.0285026E-2],"categories":[],"categories_nodes":[],"categories_segments":[],"categories_sizes":[],"default_left":[0,0,0,0,0,0,0],"id":86,"left_children":[1,3,5,-1,-1,-1,-1],"loss_changes":[2.4794142E0,1.5250323E0,1.5018436E0,0E0,0E0,0E0,0E0],"parents":[2147483647,0,0,1,1,2,2],"right_children":[2,4,6,-1,-1,-1,-1],"split_conditions":[1.252E-1,-7.4843335E-1,1.5982E0,8.2321875E-3,7.069684E-4,-1.5829492E-3,-1.0285026E-2],"split_indices":[11,16,10,0,0,0,0],"split_type":[0,0,0,0,0,0,0],"sum_hessian":[7.63E2,5.32E2,2.31E2,1.3E1,5.19E2,2.22E2,9E0],"tree_param":{"num_deleted":"0","num_feature":"18","num_nodes":"7","size_leaf_vector":"1"}},{"base_weights":[3.0823823E-4,7.852213E-2,-4.271785E-2,7.7124275E-3,1.6059016E-3,-8.006677E-4,-9.659636E-3],"categories":[],"categories_nodes":[],"categories_segments":[],"categories_sizes":[],"default_left":[0,0,0,0,0,0,0],"id":87,"left_children":[1,3,5,-1,-1,-1,-1],"loss_changes":[2.6085827E0,7.9016995E-1,1.7485287E0,0E0,0E0,0E0,0E0],"parents":[2147483647,0,0,1,1,2,2],"right_children":[2,4,6,-1,-1,-1,-1],"split_conditions":[-1.336E-1,-1.0384E0,1.5982E0,7.7124275E-3,1.6059016E-3,-8.006677E-4,-9.659636E-3],"split_indices":[11,9,10,0,0,0,0],"split_type":[0,0,0,0,0,0,0],"sum_hessian":[7.67E2,2.71E2,4.96E2,1E1,2.61E2,4.86E2,1E1],"tree_param":{"num_deleted":"0","num_feature":"18","num_nodes":"7","size_leaf_vector":"1"}},{"base_weights":[-4.4287168E-4,2.3908017E-2,-1.4030708E-1,3.1484147E-3,-4.6677025E-5,-5.038281E-3,4.4935895E-3],"categories":[],"categories_nodes":[],"categories_segments":[],"categories_sizes":[],"default_left":[0,0,0,0,0,0,0],"id":88,"left_children":[1,3,5,-1,-1,-1,-1],"loss_changes":[2.6432803E0,1.7636706E0,2.4990325E0,0E0,0E0,0E0,0E0],"parents":[2147483647,0,0,1,1,2,2],"right_children":[2,4,6,-1,-1,-1,-1],"split_conditions":[2.357E-1,-2.862E-1,2.437535E-1,3.1484147E-3,-4.6677025E-5,-5.038281E-3,4.4935895E-3],"split_indices":[12,11,13,0,0,0,0],"split_type":[0,0,0,0,0,0,0],"sum_hessian":[7.68E2,6.57E2,1.11E2,1.28E2,5.29E2,9.4E1,1.7E1],"tree_param":{"num_deleted":"0","num_feature":"18","num_nodes":"7","size_leaf_vector":"1"}},{"base_weights":[1.1131938E-3,7.6624036E-2,-4.0902615E-2,2.1879873E-3,-3.778087E-3,-1.4088524E-3,4.3919063E-3],"categories":[],"categories_nodes":[],"categories_segments":[],"categories_sizes":[],"default_left":[0,0,0,0,0,0,0],"id":89,"left_children":[1,3,5,-1,-1,-1,-1],"loss_changes":[2.459181E0,8.067224E-1,1.7876885E0,0E0,0E0,0E0,0E0],"parents":[2147483647,0,0,1,1,2,2],"right_children":[2,4,6,-1,-1,-1,-1],"split_conditions":[-1.336E-1,4.05E-1,2.367446E-1,2.1879873E-3,-3.778087E-3,-1.4088524E-3,4.3919063E-3],"split_indices":[11,8,13,0,0,0,0],"split_type":[0,0,0,0,0,0,0],"sum_hessian":[7.67E2,2.73E2,4.94E2,2.62E2,1.1E1,4.63E2,3.1E1],"tree_param":{"num_deleted":"0","num_feature":"18","num_nodes":"7","size_leaf_vector":"1"}},{"base_weights":[3.517084E-5,-1.4167713E-2,2.0536757E-1,-2.0059428E-5,-1.0849464E-2,7.967343E-3,6.122157E-4],"categories":[],"categories_nodes":[],"categories_segments":[],"categories_sizes":[],"default_left":[0,0,0,0,0,0,0],"id":90,"left_children":[1,3,5,-1,-1,-1,-1],"loss_changes":[2.2576907E0,4.103352E0,1.0232611E0,0E0,0E0,0E0,0E0],"parents":[2147483647,0,0,1,1,2,2],"right_children":[2,4,6,-1,-1,-1,-1],"split_conditions":[2.437535E-1,5.0026047E1,6.5E-1,-2.0059428E-5,-1.0849464E-2,7.967343E-3,6.122157E-4],"split_indices":[13,1,3,0,0,0,0],"split_type":[0,0,0,0,0,0,0],"sum_hessian":[7.66E2,7.2E2,4.6E1,7.02E2,1.8E1,2.6E1,2E1],"tree_param":{"num_deleted":"0","num_feature":"18","num_nodes":"7","size_leaf_vector":"1"}},{"base_weights":[-1.334198E-3,2.1794772E-2,-1.3200733E-1,2.9924163E-3,-7.28419E-5,-5.978856E-3,-4.2256885E-4],"categories":[],"categories_nodes":[],"categories_segments":[],"categories_sizes":[],"default_left":[0,0,0,0,0,0,0],"id":91,"left_children":[1,3,5,-1,-1,-1,-1],"loss_changes":[2.3331597E0,1.6111717E0,1.4465029E0,0E0,0E0,0E0,0E0],"parents":[2147483647,0,0,1,1,2,2],"right_children":[2,4,6,-1,-1,-1,-1],"split_conditions":[2.357E-1,-2.862E-1,2E1,2.9924163E-3,-7.28419E-5,-5.978856E-3,-4.2256885E-4],"split_indices":[12,11,4,0,0,0,0],"split_type":[0,0,0,0,0,0,0],"sum_hessian":[7.64E2,6.52E2,1.12E2,1.27E2,5.25E2,5.5E1,5.7E1],"tree_param":{"num_deleted":"0","num_feature":"18","num_nodes":"7","size_leaf_vector":"1"}},{"base_weights":[6.692034E-4,8.085178E-2,-3.647842E-2,8.679578E-3,1.504049E-3,-5.308417E-4,-7.4528265E-3],"categories":[],"categories_nodes":[],"categories_segments":[],"categories_sizes":[],"default_left":[0,0,0,0,0,0,0],"id":92,"left_children":[1,3,5,-1,-1,-1,-1],"loss_changes":[2.3058136E0,1.2397499E0,2.0778093E0,0E0,0E0,0E0,0E0],"parents":[2147483647,0,0,1,1,2,2],"right_children":[2,4,6,-1,-1,-1,-1],"split_conditions":[-1.601E-1,-7.4843335E-1,4.997E-1,8.679578E-3,1.504049E-3,-5.308417E-4,-7.4528265E-3],"split_indices":[9,16,8,0,0,0,0],"split_type":[0,0,0,0,0,0,0],"sum_hessian":[7.66E2,2.41E2,5.25E2,1.2E1,2.29E2,5.01E2,2.4E1],"tree_param":{"num_deleted":"0","num_feature":"18","num_nodes":"7","size_leaf_vector":"1"}},{"base_weights":[4.4145745E-5,5.4153793E-2,-5.0947502E-2,7.5689954E-4,5.2501205E-3,-8.97788E-3,-8.8448613E-4],"categories":[],"categories_nodes":[],"categories_segments":[],"categories_sizes":[],"default_left":[0,0,0,0,0,0,0],"id":93,"left_children":[1,3,5,-1,-1,-1,-1],"loss_changes":[2.1387987E0,1.3739417E0,1.8385195E0,0E0,0E0,0E0,0E0],"parents":[2147483647,0,0,1,1,2,2],"right_children":[2,4,6,-1,-1,-1,-1],"split_conditions":[-6.06E-2,2.0834754E-1,-6.325E-1,7.5689954E-4,5.2501205E-3,-8.97788E-3,-8.8448613E-4],"split_indices":[9,13,0,0,0,0,0],"split_type":[0,0,0,0,0,0,0],"sum_hessian":[7.67E2,3.72E2,3.95E2,3.28E2,4.4E1,1.4E1,3.81E2],"tree_param":{"num_deleted":"0","num_feature":"18","num_nodes":"7","size_leaf_vector":"1"}},{"base_weights":[3.5547104E-4,2.221995E-2,-1.2323043E-1,5.681464E-3,2.9251247E-4,-4.470164E-3,4.2238613E-3],"categories":[],"categories_nodes":[],"categories_segments":[],"categories_sizes":[],"default_left":[0,0,0,0,0,0,0],"id":94,"left_children":[1,3,5,-1,-1,-1,-1],"loss_changes":[2.0866559E0,1.4037548E0,2.0875313E0,0E0,0E0,0E0,0E0],"parents":[2147483647,0,0,1,1,2,2],"right_children":[2,4,6,-1,-1,-1,-1],"split_conditions":[2.357E-1,-5.447143E-1,2.437535E-1,5.681464E-3,2.9251247E-4,-4.470164E-3,4.2238613E-3],"split_indices":[12,16,13,0,0,0,0],"split_type":[0,0,0,0,0,0,0],"sum_hessian":[7.64E2,6.52E2,1.12E2,2.7E1,6.25E2,9.5E1,1.7E1],"tree_param":{"num_deleted":"0","num_feature":"18","num_nodes":"7","size_leaf_vector":"1"}},{"base_weights":[1.206212E-3,1.9108456E-2,-1.550697E-1,-1.3136762E-4,4.2582536E-3,-1.4440553E-3,-9.742408E-3],"categories":[],"categories_nodes":[],"categories_segments":[],"categories_sizes":[],"default_left":[0,0,0,0,0,0,0],"id":95,"left_children":[1,3,5,-1,-1,-1,-1],"loss_changes":[2.1525705E0,2.582517E0,1.7319528E0,0E0,0E0,0E0,0E0],"parents":[2147483647,0,0,1,1,2,2],"right_children":[2,4,6,-1,-1,-1,-1],"split_conditions":[3.21E-1,1.9410174E-1,1.1006E0,-1.3136762E-4,4.2582536E-3,-1.4440553E-3,-9.742408E-3],"split_indices":[9,14,10,0,0,0,0],"split_type":[0,0,0,0,0,0,0],"sum_hessian":[7.61E2,6.86E2,7.5E1,5.95E2,9.1E1,5.7E1,1.8E1],"tree_param":{"num_deleted":"0","num_feature":"18","num_nodes":"7","size_leaf_vector":"1"}},{"base_weights":[4.2704033E-4,2.7900966E-2,-9.602744E-2,8.372644E-3,5.165312E-4,-3.5360316E-3,2.568217E-3],"categories":[],"categories_nodes":[],"categories_segments":[],"categories_sizes":[],"default_left":[0,0,0,0,0,0,0],"id":96,"left_children":[1,3,5,-1,-1,-1,-1],"loss_changes":[2.0569534E0,1.2881478E0,1.6741489E0,0E0,0E0,0E0,0E0],"parents":[2147483647,0,0,1,1,2,2],"right_children":[2,4,6,-1,-1,-1,-1],"split_conditions":[1.969E-1,-1.3826E0,2.105781E-1,8.372644E-3,5.165312E-4,-3.5360316E-3,2.568217E-3],"split_indices":[11,9,13,0,0,0,0],"split_type":[0,0,0,0,0,0,0],"sum_hessian":[7.68E2,6E2,1.68E2,9E0,5.91E2,1.37E2,3.1E1],"tree_param":{"num_deleted":"0","num_feature":"18","num_nodes":"7","size_leaf_vector":"1"}},{"base_weights":[1.5697762E-3,3.5113417E-2,-7.562057E-2,7.6947846E-3,6.6841306E-4,-2.7890692E-3,2.6338866E-3],"categories":[],"categories_nodes":[],"categories_segments":[],"categories_sizes":[],"default_left":[0,0,0,0,0,0,0],"id":97,"left_children":[1,3,5,-1,-1,-1,-1],"loss_changes":[2.0177286E0,1.1784658E0,1.6451832E0,0E0,0E0,0E0,0E0],"parents":[2147483647,0,0,1,1,2,2],"right_children":[2,4,6,-1,-1,-1,-1],"split_conditions":[1.252E-1,-2.2559E0,2.1081437E-1,7.6947846E-3,6.6841306E-4,-2.7890692E-3,2.6338866E-3],"split_indices":[11,17,13,0,0,0,0],"split_type":[0,0,0,0,0,0,0],"sum_hessian":[7.71E2,5.39E2,2.32E2,1.1E1,5.28E2,1.94E2,3.8E1],"tree_param":{"num_deleted":"0","num_feature":"18","num_nodes":"7","size_leaf_vector":"1"}},{"base_weights":[1.2795891E-3,1.9801896E-2,-1.4038922E-1,2.7374635E-3,-2.5563933E-5,-5.0585675E-3,3.8954306E-3],"categories":[],"categories_nodes":[],"categories_segments":[],"categories_sizes":[],"default_left":[0,0,0,0,0,0,0],"id":98,"left_children":[1,3,5,-1,-1,-1,-1],"loss_changes":[2.021585E0,1.2898388E0,1.8325452E0,0E0,0E0,0E0,0E0],"parents":[2147483647,0,0,1,1,2,2],"right_children":[2,4,6,-1,-1,-1,-1],"split_conditions":[2.871E-1,-5.002E-1,2.437535E-1,2.7374635E-3,-2.5563933E-5,-5.0585675E-3,3.8954306E-3],"split_indices":[12,17,13,0,0,0,0],"split_type":[0,0,0,0,0,0,0],"sum_hessian":[7.62E2,6.77E2,8.5E1,1.23E2,5.54E2,7.1E1,1.4E1],"tree_param":{"num_deleted":"0","num_feature":"18","num_nodes":"7","size_leaf_vector":"1"}},{"base_weights":[2.529876E-3,2.8800448E-2,-9.185368E-2,8.052673E-3,5.4698763E-4,-3.4026783E-3,2.4417096E-3],"categories":[],"categories_nodes":[],"categories_segments":[],"categories_sizes":[],"default_left":[0,0,0,0,0,0,0],"id":99,"left_children":[1,3,5,-1,-1,-1,-1],"loss_changes":[1.9251957E0,1.1754379E0,1.5279647E0,0E0,0E0,0E0,0E0],"parents":[2147483647,0,0,1,1,2,2],"right_children":[2,4,6,-1,-1,-1,-1],"split_conditions":[1.969E-1,-1.3826E0,2.105781E-1,8.052673E-3,5.4698763E-4,-3.4026783E-3,2.4417096E-3],"split_indices":[11,9,13,0,0,0,0],"split_type":[0,0,0,0,0,0,0],"sum_hessian":[7.68E2,6.03E2,1.65E2,9E0,5.94E2,1.34E2,3.1E1],"tree_param":{"num_deleted":"0","num_feature":"18","num_nodes":"7","size_leaf_vector":"1"}},{"base_weights":[4.930452E-5,2.6186164E-3,-2.3123331E-2,-2.9012203E-4,-6.20124E-3],"categories":[],"categories_nodes":[],"categories_segments":[],"categories_sizes":[],"default_left":[0,0,0,0,0],"id":100,"left_children":[1,-1,3,-1,-1],"loss_changes":[1.8981477E0,0E0,1.6348289E0,0E0,0E0],"parents":[2147483647,0,0,2,2],"right_children":[2,-1,4,-1,-1],"split_conditions":[-2.828E-1,2.6186164E-3,1.2121E0,-2.9012203E-4,-6.20124E-3],"split_indices":[11,0,10,0,0],"split_type":[0,0,0,0,0],"sum_hessian":[7.66E2,1.35E2,6.31E2,6.05E2,2.6E1],"tree_param":{"num_deleted":"0","num_feature":"18","num_nodes":"5","size_leaf_vector":"1"}},{"base_weights":[8.7284576E-4,1.12530235E-2,-2.2461958E-1,-6.329572E-4,1.8282562E-3,-8.62008E-3,1.2937955E-3],"categories":[],"categories_nodes":[],"categories_segments":[],"categories_sizes":[],"default_left":[0,0,0,0,0,0,0],"id":101,"left_children":[1,3,5,-1,-1,-1,-1],"loss_changes":[1.8128223E0,1.7160108E0,1.2434211E0,0E0,0E0,0E0,0E0],"parents":[2147483647,0,0,1,1,2,2],"right_children":[2,4,6,-1,-1,-1,-1],"split_conditions":[5.515E-1,-3E-1,3.2297102E-1,-6.329572E-4,1.8282562E-3,-8.62008E-3,1.2937955E-3],"split_indices":[11,1,14,0,0,0,0],"split_type":[0,0,0,0,0,0,0],"sum_hessian":[7.66E2,7.36E2,3E1,4.65E2,2.71E2,2E1,1E1],"tree_param":{"num_deleted":"0","num_feature":"18","num_nodes":"7","size_leaf_vector":"1"}},{"base_weights":[1.6261035E-3,6.6598654E-2,-3.453146E-2,1.9246076E-3,-3.687598E-3,-6.250969E-4,-8.546047E-3],"categories":[],"categories_nodes":[],"categories_segments":[],"categories_sizes":[],"default_left":[0,0,0,0,0,0,0],"id":102,"left_children":[1,3,5,-1,-1,-1,-1],"loss_changes":[1.8208623E0,7.169206E-1,1.3987701E0,0E0,0E0,0E0,0E0],"parents":[2147483647,0,0,1,1,2,2],"right_children":[2,4,6,-1,-1,-1,-1],"split_conditions":[-1.336E-1,4.05E-1,1.5982E0,1.9246076E-3,-3.687598E-3,-6.250969E-4,-8.546047E-3],"split_indices":[11,8,10,0,0,0,0],"split_type":[0,0,0,0,0,0,0],"sum_hessian":[7.67E2,2.73E2,4.94E2,2.62E2,1.1E1,4.84E2,1E1],"tree_param":{"num_deleted":"0","num_feature":"18","num_nodes":"7","size_leaf_vector":"1"}},{"base_weights":[1.1678758E-3,7.2667144E-2,-3.2096423E-2,1.2661553E-3,6.4811744E-3,-4.5307144E-4,-6.809379E-3],"categories":[],"categories_nodes":[],"categories_segments":[],"categories_sizes":[],"default_left":[0,0,0,0,0,0,0],"id":103,"left_children":[1,3,5,-1,-1,-1,-1],"loss_changes":[1.8434527E0,9.4615066E-1,1.7524536E0,0E0,0E0,0E0,0E0],"parents":[2147483647,0,0,1,1,2,2],"right_children":[2,4,6,-1,-1,-1,-1],"split_conditions":[-1.601E-1,3.5001123E-1,4.997E-1,1.2661553E-3,6.4811744E-3,-4.5307144E-4,-6.809379E-3],"split_indices":[9,14,8,0,0,0,0],"split_type":[0,0,0,0,0,0,0],"sum_hessian":[7.67E2,2.42E2,5.25E2,2.22E2,2E1,5.01E2,2.4E1],"tree_param":{"num_deleted":"0","num_feature":"18","num_nodes":"7","size_leaf_vector":"1"}},{"base_weights":[1.4956021E-3,2.3393646E-2,-1.0015792E-1,2.6703665E-3,4.062392E-5,-3.508967E-3,3.5419627E-3],"categories":[],"categories_nodes":[],"categories_segments":[],"categories_sizes":[],"default_left":[0,0,0,0,0,0,0],"id":104,"left_children":[1,3,5,-1,-1,-1,-1],"loss_changes":[1.7215616E0,1.1691794E0,1.4737759E0,0E0,0E0,0E0,0E0],"parents":[2147483647,0,0,1,1,2,2],"right_children":[2,4,6,-1,-1,-1,-1],"split_conditions":[2.074E-1,-2.862E-1,2.437535E-1,2.6703665E-3,4.062392E-5,-3.508967E-3,3.5419627E-3],"split_indices":[12,11,13,0,0,0,0],"split_type":[0,0,0,0,0,0,0],"sum_hessian":[7.65E2,6.32E2,1.33E2,1.26E2,5.06E2,1.15E2,1.8E1],"tree_param":{"num_deleted":"0","num_feature":"18","num_nodes":"7","size_leaf_vector":"1"}},{"base_weights":[3.7522864E-4,2.6282142E-3,-2.2040393E-2,-3.8283225E-4,-9.589387E-3],"categories":[],"categories_nodes":[],"categories_segments":[],"categories_sizes":[],"default_left":[0,0,0,0,0],"id":105,"left_children":[1,-1,3,-1,-1],"loss_changes":[1.8347297E0,0E0,1.5068927E0,0E0,0E0],"parents":[2147483647,0,0,2,2],"right_children":[2,-1,4,-1,-1],"split_conditions":[-2.862E-1,2.6282142E-3,7.859E-1,-3.8283225E-4,-9.589387E-3],"split_indices":[11,0,8,0,0],"split_type":[0,0,0,0,0],"sum_hessian":[7.65E2,1.31E2,6.34E2,6.27E2,7E0],"tree_param":{"num_deleted":"0","num_feature":"18","num_nodes":"5","size_leaf_vector":"1"}},{"base_weights":[1.5379285E-3,2.8187152E-2,-8.226528E-2,-7.5718425E-3,8.5010054E-4,-2.8197563E-3,3.4922727E-3],"categories":[],"categories_nodes":[],"categories_segments":[],"categories_sizes":[],"default_left":[0,0,0,0,0,0,0],"id":106,"left_children":[1,3,5,-1,-1,-1,-1],"loss_changes":[1.7315261E0,1.2575475E0,1.3918744E0,0E0,0E0,0E0,0E0],"parents":[2147483647,0,0,1,1,2,2],"right_children":[2,4,6,-1,-1,-1,-1],"split_conditions":[1.531E-1,-7.068E-1,2.437535E-1,-7.5718425E-3,8.5010054E-4,-2.8197563E-3,3.4922727E-3],"split_indices":[12,0,13,0,0,0,0],"split_type":[0,0,0,0,0,0,0],"sum_hessian":[7.67E2,5.84E2,1.83E2,7E0,5.77E2,1.62E2,2.1E1],"tree_param":{"num_deleted":"0","num_feature":"18","num_nodes":"7","size_leaf_vector":"1"}},{"base_weights":[-8.0347736E-4,2.4024192E-2,-8.98653E-2,8.346704E-3,4.4605538E-4,-3.2705003E-3,2.6335185E-3],"categories":[],"categories_nodes":[],"categories_segments":[],"categories_sizes":[],"default_left":[0,0,0,0,0,0,0],"id":107,"left_children":[1,3,5,-1,-1,-1,-1],"loss_changes":[1.7049932E0,1.1077056E0,1.4548659E0,0E0,0E0,0E0,0E0],"parents":[2147483647,0,0,1,1,2,2],"right_children":[2,4,6,-1,-1,-1,-1],"split_conditions":[1.969E-1,-2.521E0,2.1193622E-1,8.346704E-3,4.4605538E-4,-3.2705003E-3,2.6335185E-3],"split_indices":[11,15,13,0,0,0,0],"split_type":[0,0,0,0,0,0,0],"sum_hessian":[7.63E2,5.99E2,1.64E2,7E0,5.92E2,1.36E2,2.8E1],"tree_param":{"num_deleted":"0","num_feature":"18","num_nodes":"7","size_leaf_vector":"1"}},{"base_weights":[6.926598E-4,1.0533071E-2,-2.0752653E-1,-6.260019E-4,1.7320662E-3,-7.9255905E-3,1.3277028E-3],"categories":[],"categories_nodes":[],"categories_segments":[],"categories_sizes":[],"default_left":[0,0,0,0,0,0,0],"id":108,"left_children":[1,3,5,-1,-1,-1,-1],"loss_changes":[1.5929483E0,1.5893229E0,1.1045592E0,0E0,0E0,0E0,0E0],"parents":[2147483647,0,0,1,1,2,2],"right_children":[2,4,6,-1,-1,-1,-1],"split_conditions":[5.515E-1,-3E-1,3.2297102E-1,-6.260019E-4,1.7320662E-3,-7.9255905E-3,1.3277028E-3],"split_indices":[11,1,14,0,0,0,0],"split_type":[0,0,0,0,0,0,0],"sum_hessian":[7.69E2,7.38E2,3.1E1,4.62E2,2.76E2,2.1E1,1E1],"tree_param":{"num_deleted":"0","num_feature":"18","num_nodes":"7","size_leaf_vector":"1"}},{"base_weights":[-3.3132866E-4,7.180585E-3,-2.6893145E-1,-7.444913E-4,1.7139162E-3,9.1368105E-4,-9.909521E-3],"categories":[],"categories_nodes":[],"categories_segments":[],"categories_sizes":[],"default_left":[0,0,0,0,0,0,0],"id":109,"left_children":[1,3,5,-1,-1,-1,-1],"loss_changes":[1.5637058E0,1.754281E0,9.0953755E-1,0E0,0E0,0E0,0E0],"parents":[2147483647,0,0,1,1,2,2],"right_children":[2,4,6,-1,-1,-1,-1],"split_conditions":[6.325E-1,-3E-1,1.2985E0,-7.444913E-4,1.7139162E-3,9.1368105E-4,-9.909521E-3],"split_indices":[8,1,10,0,0,0,0],"split_type":[0,0,0,0,0,0,0],"sum_hessian":[7.67E2,7.5E2,1.7E1,4.7E2,2.8E2,6E0,1.1E1],"tree_param":{"num_deleted":"0","num_feature":"18","num_nodes":"7","size_leaf_vector":"1"}},{"base_weights":[-9.142766E-4,1.4311246E-2,-1.34879E-1,-1.4801022E-4,3.6126426E-3,-1.1049833E-3,-8.55439E-3],"categories":[],"categories_nodes":[],"categories_segments":[],"categories_sizes":[],"default_left":[0,0,0,0,0,0,0],"id":110,"left_children":[1,3,5,-1,-1,-1,-1],"loss_changes":[1.580652E0,1.864499E0,1.4417527E0,0E0,0E0,0E0,0E0],"parents":[2147483647,0,0,1,1,2,2],"right_children":[2,4,6,-1,-1,-1,-1],"split_conditions":[3.21E-1,1.9410174E-1,1.0252E0,-1.4801022E-4,3.6126426E-3,-1.1049833E-3,-8.55439E-3],"split_indices":[9,14,10,0,0,0,0],"split_type":[0,0,0,0,0,0,0],"sum_hessian":[7.67E2,6.92E2,7.5E1,6.03E2,8.9E1,5.6E1,1.9E1],"tree_param":{"num_deleted":"0","num_feature":"18","num_nodes":"7","size_leaf_vector":"1"}},{"base_weights":[1.1704265E-3,1.3523239E-1,-1.4111554E-2,4.841209E-3,-7.5432734E-5,-1.0533293E-4,-7.111905E-3],"categories":[],"categories_nodes":[],"categories_segments":[],"categories_sizes":[],"default_left":[0,0,0,0,0,0,0],"id":111,"left_children":[1,3,5,-1,-1,-1,-1],"loss_changes":[1.5834428E0,6.6378677E-1,1.8647406E0,0E0,0E0,0E0,0E0],"parents":[2147483647,0,0,1,1,2,2],"right_children":[2,4,6,-1,-1,-1,-1],"split_conditions":[-7.947E-1,7.24E-1,5.0026047E1,4.841209E-3,-7.5432734E-5,-1.0533293E-4,-7.111905E-3],"split_indices":[17,3,1,0,0,0,0],"split_type":[0,0,0,0,0,0,0],"sum_hessian":[7.65E2,7.5E1,6.9E2,5.1E1,2.4E1,6.7E2,2E1],"tree_param":{"num_deleted":"0","num_feature":"18","num_nodes":"7","size_leaf_vector":"1"}},{"base_weights":[1.528109E-3,6.0987387E-2,-3.1829502E-2,1.7933995E-3,-3.2536678E-3,-1.8640799E-3,6.447073E-4],"categories":[],"categories_nodes":[],"categories_segments":[],"categories_sizes":[],"default_left":[0,0,0,0,0,0,0],"id":112,"left_children":[1,3,5,-1,-1,-1,-1],"loss_changes":[1.5293788E0,6.5300286E-1,1.2530318E0,0E0,0E0,0E0,0E0],"parents":[2147483647,0,0,1,1,2,2],"right_children":[2,4,6,-1,-1,-1,-1],"split_conditions":[-1.336E-1,3.2454067E1,-3E-1,1.7933995E-3,-3.2536678E-3,-1.8640799E-3,6.447073E-4],"split_indices":[11,1,1,0,0,0,0],"split_type":[0,0,0,0,0,0,0],"sum_hessian":[7.63E2,2.73E2,4.9E2,2.6E2,1.3E1,2.79E2,2.11E2],"tree_param":{"num_deleted":"0","num_feature":"18","num_nodes":"7","size_leaf_vector":"1"}},{"base_weights":[-6.711434E-5,1.8563941E-2,-1.0333672E-1,-7.2016898E-3,5.863679E-4,-3.7286088E-3,3.615207E-3],"categories":[],"categories_nodes":[],"categories_segments":[],"categories_sizes":[],"default_left":[0,0,0,0,0,0,0],"id":113,"left_children":[1,3,5,-1,-1,-1,-1],"loss_changes":[1.4991149E0,1.0789568E0,1.4980042E0,0E0,0E0,0E0,0E0],"parents":[2147483647,0,0,1,1,2,2],"right_children":[2,4,6,-1,-1,-1,-1],"split_conditions":[2.357E-1,-7.068E-1,2.437535E-1,-7.2016898E-3,5.863679E-4,-3.7286088E-3,3.615207E-3],"split_indices":[12,0,13,0,0,0,0],"split_type":[0,0,0,0,0,0,0],"sum_hessian":[7.71E2,6.56E2,1.15E2,7E0,6.49E2,9.8E1,1.7E1],"tree_param":{"num_deleted":"0","num_feature":"18","num_nodes":"7","size_leaf_vector":"1"}},{"base_weights":[2.3305868E-3,8.077306E-3,-9.6988E-3,7.7463617E-4,-1.8246972E-3],"categories":[],"categories_nodes":[],"categories_segments":[],"categories_sizes":[],"default_left":[0,0,0,0,0],"id":114,"left_children":[1,3,-1,-1,-1],"loss_changes":[1.7493012E0,1.4530548E0,0E0,0E0,0E0],"parents":[2147483647,0,0,1,1],"right_children":[2,4,-1,-1,-1],"split_conditions":[7.859E-1,-3.294E-1,-9.6988E-3,7.7463617E-4,-1.8246972E-3],"split_indices":[8,15,0,0,0],"split_type":[0,0,0,0,0],"sum_hessian":[7.62E2,7.55E2,7E0,5.9E2,1.65E2],"tree_param":{"num_deleted":"0","num_feature":"18","num_nodes":"5","size_leaf_vector":"1"}},{"base_weights":[-1.2498728E-3,1.378544E-2,-1.3409343E-1,-1.6563194E-4,3.6880323E-3,-9.7182824E-4,-7.673199E-3],"categories":[],"categories_nodes":[],"categories_segments":[],"categories_sizes":[],"default_left":[0,0,0,0,0,0,0],"id":115,"left_children":[1,3,5,-1,-1,-1,-1],"loss_changes":[1.5536635E0,1.9413726E0,1.2705631E0,0E0,0E0,0E0,0E0],"parents":[2147483647,0,0,1,1,2,2],"right_children":[2,4,6,-1,-1,-1,-1],"split_conditions":[3.21E-1,1.9410174E-1,7.64E-1,-1.6563194E-4,3.6880323E-3,-9.7182824E-4,-7.673199E-3],"split_indices":[9,14,10,0,0,0,0],"split_type":[0,0,0,0,0,0,0],"sum_hessian":[7.7E2,6.95E2,7.5E1,6.07E2,8.8E1,5.2E1,2.3E1],"tree_param":{"num_deleted":"0","num_feature":"18","num_nodes":"7","size_leaf_vector":"1"}},{"base_weights":[-8.078958E-4,6.258141E-2,-3.0054534E-2,1.0596844E-3,5.849881E-3,-5.3764526E-3,-4.0240356E-4],"categories":[],"categories_nodes":[],"categories_segments":[],"categories_sizes":[],"default_left":[0,0,0,0,0,0,0],"id":116,"left_children":[1,3,5,-1,-1,-1,-1],"loss_changes":[1.4390681E0,8.0009645E-1,1.3569334E0,0E0,0E0,0E0,0E0],"parents":[2147483647,0,0,1,1,2,2],"right_children":[2,4,6,-1,-1,-1,-1],"split_conditions":[-1.601E-1,3.5001123E-1,-4.325E-1,1.0596844E-3,5.849881E-3,-5.3764526E-3,-4.0240356E-4],"split_indices":[9,14,0,0,0,0,0],"split_type":[0,0,0,0,0,0,0],"sum_hessian":[7.68E2,2.41E2,5.27E2,2.21E2,2E1,3.2E1,4.95E2],"tree_param":{"num_deleted":"0","num_feature":"18","num_nodes":"7","size_leaf_vector":"1"}},{"base_weights":[6.173863E-4,-1.0628464E-2,1.5974979E-1,-8.518052E-3,9.264888E-6,6.508008E-3,2.4246877E-4],"categories":[],"categories_nodes":[],"categories_segments":[],"categories_sizes":[],"default_left":[0,0,0,0,0,0,0],"id":117,"left_children":[1,3,5,-1,-1,-1,-1],"loss_changes":[1.3850623E0,2.6556067E0,7.8103745E-1,0E0,0E0,0E0,0E0],"parents":[2147483647,0,0,1,1,2,2],"right_children":[2,4,6,-1,-1,-1,-1],"split_conditions":[2.437535E-1,-4.814E-1,6.5E-1,-8.518052E-3,9.264888E-6,6.508008E-3,2.4246877E-4],"split_indices":[13,0,3,0,0,0,0],"split_type":[0,0,0,0,0,0,0],"sum_hessian":[7.66E2,7.19E2,4.7E1,1.9E1,7E2,2.6E1,2.1E1],"tree_param":{"num_deleted":"0","num_feature":"18","num_nodes":"7","size_leaf_vector":"1"}},{"base_weights":[1.3595327E-3,2.5904873E-2,-7.982266E-2,7.779945E-3,5.010848E-4,-3.981568E-3,-7.163121E-5],"categories":[],"categories_nodes":[],"categories_segments":[],"categories_sizes":[],"default_left":[0,0,0,0,0,0,0],"id":118,"left_children":[1,3,5,-1,-1,-1,-1],"loss_changes":[1.536972E0,9.3915355E-1,1.1158224E0,0E0,0E0,0E0,0E0],"parents":[2147483647,0,0,1,1,2,2],"right_children":[2,4,6,-1,-1,-1,-1],"split_conditions":[1.531E-1,-2.521E0,2E1,7.779945E-3,5.010848E-4,-3.981568E-3,-7.163121E-5],"split_indices":[12,15,4,0,0,0,0],"split_type":[0,0,0,0,0,0,0],"sum_hessian":[7.63E2,5.88E2,1.75E2,7E0,5.81E2,8.3E1,9.2E1],"tree_param":{"num_deleted":"0","num_feature":"18","num_nodes":"7","size_leaf_vector":"1"}},{"base_weights":[-2.2128923E-4,2.1843293E-3,-1.9316899E-2,-1.9556056E-3,3.1508284E-4],"categories":[],"categories_nodes":[],"categories_segments":[],"categories_sizes":[],"default_left":[0,0,0,0,0],"id":119,"left_children":[1,-1,3,-1,-1],"loss_changes":[1.3154855E0,0E0,1.2298023E0,0E0,0E0],"parents":[2147483647,0,0,2,2],"right_children":[2,-1,4,-1,-1],"split_conditions":[-2.862E-1,2.1843293E-3,-2.575E0,-1.9556056E-3,3.1508284E-4],"split_indices":[11,0,1,0,0],"split_type":[0,0,0,0,0],"sum_hessian":[7.7E2,1.34E2,6.36E2,2.2E2,4.16E2],"tree_param":{"num_deleted":"0","num_feature":"18","num_nodes":"5","size_leaf_vector":"1"}},{"base_weights":[1.8035783E-4,1.1351164E-2,-1.608878E-1,2.0978039E-3,-1.906012E-4,-6.699871E-3,2.3462668E-3],"categories":[],"categories_nodes":[],"categories_segments":[],"categories_sizes":[],"default_left":[0,0,0,0,0,0,0],"id":120,"left_children":[1,3,5,-1,-1,-1,-1],"loss_changes":[1.389443E0,1.0134019E0,1.5132896E0,0E0,0E0,0E0,0E0],"parents":[2147483647,0,0,1,1,2,2],"right_children":[2,4,6,-1,-1,-1,-1],"split_conditions":[4.641E-1,-4.271E-1,2.437535E-1,2.0978039E-3,-1.906012E-4,-6.699871E-3,2.3462668E-3],"split_indices":[11,17,13,0,0,0,0],"split_type":[0,0,0,0,0,0,0],"sum_hessian":[7.64E2,7.18E2,4.6E1,1.45E2,5.73E2,3.2E1,1.4E1],"tree_param":{"num_deleted":"0","num_feature":"18","num_nodes":"7","size_leaf_vector":"1"}},{"base_weights":[5.4826477E-4,2.4289344E-2,-7.624124E-2,8.0962054E-4,-4.250072E-3,-2.6019951E-3,3.0476893E-3],"categories":[],"categories_nodes":[],"categories_segments":[],"categories_sizes":[],"default_left":[0,0,0,0,0,0,0],"id":121,"left_children":[1,3,5,-1,-1,-1,-1],"loss_changes":[1.413301E0,1.0028912E0,1.1098706E0,0E0,0E0,0E0,0E0],"parents":[2147483647,0,0,1,1,2,2],"right_children":[2,4,6,-1,-1,-1,-1],"split_conditions":[1.531E-1,5.0026047E1,2.437535E-1,8.0962054E-4,-4.250072E-3,-2.6019951E-3,3.0476893E-3],"split_indices":[12,1,13,0,0,0,0],"split_type":[0,0,0,0,0,0,0],"sum_hessian":[7.67E2,5.88E2,1.79E2,5.67E2,2.1E1,1.58E2,2.1E1],"tree_param":{"num_deleted":"0","num_feature":"18","num_nodes":"7","size_leaf_vector":"1"}},{"base_weights":[-1.4802568E-4,-1.4030085E-2,1.2449665E-1,1.5113222E-5,-9.241798E-3,5.4036104E-3,-1.0694036E-3],"categories":[],"categories_nodes":[],"categories_segments":[],"categories_sizes":[],"default_left":[0,0,0,0,0,0,0],"id":122,"left_children":[1,3,5,-1,-1,-1,-1],"loss_changes":[1.3309782E0,3.64442E0,1.2532138E0,0E0,0E0,0E0,0E0],"parents":[2147483647,0,0,1,1,2,2],"right_children":[2,4,6,-1,-1,-1,-1],"split_conditions":[2.1539986E-1,5.932E-1,7.32E-1,1.5113222E-5,-9.241798E-3,5.4036104E-3,-1.0694036E-3],"split_indices":[13,10,3,0,0,0,0],"split_type":[0,0,0,0,0,0,0],"sum_hessian":[7.61E2,6.88E2,7.3E1,6.65E2,2.3E1,4.6E1,2.7E1],"tree_param":{"num_deleted":"0","num_feature":"18","num_nodes":"7","size_leaf_vector":"1"}},{"base_weights":[-1.5408733E-4,2.1946714E-3,-1.9018654E-2,-2.4696317E-4,-4.976139E-3],"categories":[],"categories_nodes":[],"categories_segments":[],"categories_sizes":[],"default_left":[0,0,0,0,0],"id":123,"left_children":[1,-1,3,-1,-1],"loss_changes":[1.3030257E0,0E0,1.0468172E0,0E0,0E0],"parents":[2147483647,0,0,2,2],"right_children":[2,-1,4,-1,-1],"split_conditions":[-2.862E-1,2.1946714E-3,1.2121E0,-2.4696317E-4,-4.976139E-3],"split_indices":[11,0,10,0,0],"split_type":[0,0,0,0,0],"sum_hessian":[7.69E2,1.32E2,6.37E2,6.11E2,2.6E1],"tree_param":{"num_deleted":"0","num_feature":"18","num_nodes":"5","size_leaf_vector":"1"}},{"base_weights":[-9.38777E-5,2.5515486E-2,-6.685169E-2,8.490102E-4,-4.5675216E-3,-3.4017118E-3,6.098048E-5],"categories":[],"categories_nodes":[],"categories_segments":[],"categories_sizes":[],"default_left":[0,0,0,0,0,0,0],"id":124,"left_children":[1,3,5,-1,-1,-1,-1],"loss_changes":[1.3201034E0,1.0587064E0,1.0500064E0,0E0,0E0,0E0,0E0],"parents":[2147483647,0,0,1,1,2,2],"right_children":[2,4,6,-1,-1,-1,-1],"split_conditions":[1.207E-1,5.0026047E1,2E1,8.490102E-4,-4.5675216E-3,-3.4017118E-3,6.098048E-5],"split_indices":[12,1,4,0,0,0,0],"split_type":[0,0,0,0,0,0,0],"sum_hessian":[7.64E2,5.54E2,2.1E2,5.35E2,1.9E1,1.02E2,1.08E2],"tree_param":{"num_deleted":"0","num_feature":"18","num_nodes":"7","size_leaf_vector":"1"}},{"base_weights":[-3.061431E-4,-1.1267841E-2,1.6142435E-1,-2.286445E-5,-8.407822E-3,6.3500106E-3,4.6981702E-4],"categories":[],"categories_nodes":[],"categories_segments":[],"categories_sizes":[],"default_left":[0,0,0,0,0,0,0],"id":125,"left_children":[1,3,5,-1,-1,-1,-1],"loss_changes":[1.3708926E0,2.4599524E0,6.461824E-1,0E0,0E0,0E0,0E0],"parents":[2147483647,0,0,1,1,2,2],"right_children":[2,4,6,-1,-1,-1,-1],"split_conditions":[2.437535E-1,5.0026047E1,6.5E-1,-2.286445E-5,-8.407822E-3,6.3500106E-3,4.6981702E-4],"split_indices":[13,1,3,0,0,0,0],"split_type":[0,0,0,0,0,0,0],"sum_hessian":[7.65E2,7.2E2,4.5E1,7.02E2,1.8E1,2.5E1,2E1],"tree_param":{"num_deleted":"0","num_feature":"18","num_nodes":"7","size_leaf_vector":"1"}},{"base_weights":[-8.8691525E-4,1.144227E-2,-1.351559E-1,-1.0157744E-3,1.0260596E-3,-5.4414603E-3,3.3384417E-3],"categories":[],"categories_nodes":[],"categories_segments":[],"categories_sizes":[],"default_left":[0,0,0,0,0,0,0],"id":126,"left_children":[1,3,5,-1,-1,-1,-1],"loss_changes":[1.2811353E0,1.1252344E0,1.6123437E0,0E0,0E0,0E0,0E0],"parents":[2147483647,0,0,1,1,2,2],"right_children":[2,4,6,-1,-1,-1,-1],"split_conditions":[3.643E-1,-2.575E0,2.437535E-1,-1.0157744E-3,1.0260596E-3,-5.4414603E-3,3.3384417E-3],"split_indices":[12,1,13,0,0,0,0],"split_type":[0,0,0,0,0,0,0],"sum_hessian":[7.66E2,7.05E2,6.1E1,2.56E2,4.49E2,4.7E1,1.4E1],"tree_param":{"num_deleted":"0","num_feature":"18","num_nodes":"7","size_leaf_vector":"1"}},{"base_weights":[1.9695042E-3,-1.1080526E-2,1.20913506E-1,2.0369633E-5,-8.130889E-3,-1.7331532E-4,5.85062E-3],"categories":[],"categories_nodes":[],"categories_segments":[],"categories_sizes":[],"default_left":[0,0,0,0,0,0,0],"id":127,"left_children":[1,3,5,-1,-1,-1,-1],"loss_changes":[1.1946061E0,2.6253397E0,1.131864E0,0E0,0E0,0E0,0E0],"parents":[2147483647,0,0,1,1,2,2],"right_children":[2,4,6,-1,-1,-1,-1],"split_conditions":[2.1539986E-1,5.932E-1,2.4E1,2.0369633E-5,-8.130889E-3,-1.7331532E-4,5.85062E-3],"split_indices":[13,10,4,0,0,0,0],"split_type":[0,0,0,0,0,0,0],"sum_hessian":[7.62E2,6.9E2,7.2E1,6.69E2,2.1E1,3.6E1,3.6E1],"tree_param":{"num_deleted":"0","num_feature":"18","num_nodes":"7","size_leaf_vector":"1"}},{"base_weights":[-2.7406397E-3,8.099308E-3,-1.5489687E-1,-1.0175409E-3,9.090902E-4,-5.6019356E-3,1.909982E-3],"categories":[],"categories_nodes":[],"categories_segments":[],"categories_sizes":[],"default_left":[0,0,0,0,0,0,0],"id":128,"left_children":[1,3,5,-1,-1,-1,-1],"loss_changes":[1.2670285E0,1.0190974E0,9.199474E-1,0E0,0E0,0E0,0E0],"parents":[2147483647,0,0,1,1,2,2],"right_children":[2,4,6,-1,-1,-1,-1],"split_conditions":[3.945E-1,-2.575E0,2.437535E-1,-1.0175409E-3,9.090902E-4,-5.6019356E-3,1.909982E-3],"split_indices":[12,1,13,0,0,0,0],"split_type":[0,0,0,0,0,0,0],"sum_hessian":[7.61E2,7.14E2,4.7E1,2.62E2,4.52E2,3.6E1,1.1E1],"tree_param":{"num_deleted":"0","num_feature":"18","num_nodes":"7","size_leaf_vector":"1"}},{"base_weights":[-1.2507881E-3,1.0147478E-2,-1.5808117E-1,-9.853523E-4,9.759715E-4,2.1097786E-3,-5.3680413E-3],"categories":[],"categories_nodes":[],"categories_segments":[],"categories_sizes":[],"default_left":[0,0,0,0,0,0,0],"id":129,"left_children":[1,3,5,-1,-1,-1,-1],"loss_changes":[1.3742129E0,1.0567718E0,8.2249284E-1,0E0,0E0,0E0,0E0],"parents":[2147483647,0,0,1,1,2,2],"right_children":[2,4,6,-1,-1,-1,-1],"split_conditions":[3.945E-1,-2.575E0,-1.04E-1,-9.853523E-4,9.759715E-4,2.1097786E-3,-5.3680413E-3],"split_indices":[12,1,9,0,0,0,0],"split_type":[0,0,0,0,0,0,0],"sum_hessian":[7.61E2,7.13E2,4.8E1,2.63E2,4.5E2,9E0,3.9E1],"tree_param":{"num_deleted":"0","num_feature":"18","num_nodes":"7","size_leaf_vector":"1"}},{"base_weights":[3.4842666E-4,8.846738E-3,-1.7281227E-1,2.0174398E-3,-2.2947181E-4,-7.1443385E-3,1.1073705E-3],"categories":[],"categories_nodes":[],"categories_segments":[],"categories_sizes":[],"default_left":[0,0,0,0,0,0,0],"id":130,"left_children":[1,3,5,-1,-1,-1,-1],"loss_changes":[1.1350648E0,9.717233E-1,9.635403E-1,0E0,0E0,0E0,0E0],"parents":[2147483647,0,0,1,1,2,2],"right_children":[2,4,6,-1,-1,-1,-1],"split_conditions":[5.515E-1,-4.271E-1,2.437535E-1,2.0174398E-3,-2.2947181E-4,-7.1443385E-3,1.1073705E-3],"split_indices":[11,17,13,0,0,0,0],"split_type":[0,0,0,0,0,0,0],"sum_hessian":[7.63E2,7.31E2,3.2E1,1.43E2,5.88E2,2E1,1.2E1],"tree_param":{"num_deleted":"0","num_feature":"18","num_nodes":"7","size_leaf_vector":"1"}},{"base_weights":[-6.7991944E-4,3.207294E-2,-4.7324885E-2,4.172484E-4,5.2261897E-3,-1.7239066E-3,1.8587002E-3],"categories":[],"categories_nodes":[],"categories_segments":[],"categories_sizes":[],"default_left":[0,0,0,0,0,0,0],"id":131,"left_children":[1,3,5,-1,-1,-1,-1],"loss_changes":[1.1781172E0,1.2200056E0,8.925683E-1,0E0,0E0,0E0,